tree
version=v4
num_class=1
num_tree_per_iteration=1
label_index=0
max_feature_idx=10
objective=quantile
feature_names=sin_h cos_h sin_doy cos_doy dow blh u10 v10 wspd t2m c_prior
feature_infos=[-1:1] [-1:1] [-0.9999994220246925:0.99998555065071859] [-0.99997919295908233:0.9999907524084426] [0:6] [15.993975639343262:2103.04541015625] [-4.3281758197985196:5.5272227397717932] [-2.9184064323023757:3.8356035092002472] [0.0030705611046950975:5.9752157122666336] [288.09007423802439:306.48173625745278] [6.1703870192818009:303.13260949176288]
tree_sizes=5212 5629 5611 5592 5648 5585 5646 5601 5617 5615 5626 5573 5647 5628 5661 5588 5576 5630 5627 5653 5592 5651 5608 5644 5646 5703 5645 5668 5644 5673 5611 5691 5690 5679 5697 5673 5656 5681 5741 5688 5684 5663 5707 5652 5667 5670 5632 5721 5692 5701 5721 5708 5675 5715 5717 5714 5731 5727 5704 5725 5736 5680 5728 5712 5721 5701 5723 5702 5683 5760 5746 5679 5669 5739 5736 5740 5687 5684 5743 5712 5758 5732 5754 5762 5707 5714 5720 5716 5755 5725 5697 5755 5705 5707 5763 5720 5735 5749 5735 5707 5771 5762 5742 5728 5662 5711 5737 5744 5703 5746 5742 5739 5778 5701 5713 5735 5709 5716 5705 5755 5748 5766 5706 5723 5751 5740 5663 5751 5713 5737 5764 5685 5702 5682 5701 5770 5755 5673 5791 5669 5757 5743 5704 5729 5727 5718 5749 5750 5750 5750 5748 5787 5784 5739 5725 5738 5750 5725 5760 5723 5716 5724 5753 5771 5741 5740 5767 5754 5733 5734 5707 5788 5765 5703 5715 5693 5758 5725 5743 5760 5702 5751 5760 5712 5720 5741 5751 5661 5739 5744 5761 5721 5682 5687 5658 5685 5674 5778 5754 5741 5713 5682 5690 5747 5743 5703 5741 5722 5738 5741 5686 5745 5709 5685 5703 5722 5748 5780 5781 5696 5724 5735 5689 5728 5703 5749 5698 5765 5736 5777 5706 5703 5746 5738 5766 5698 5697 5692 5718 5727 5746 5715 5684 5785 5734 5677 5737 5680 5659 5729 5709 5749 5723 5705 5726 5732 5751 5729 5735 5682 5727 5743 5678 5696 5739 5681 5716 5687 5673 5777 5668 5696 5701 5723 5723 5725 5687 5745 5726 5726 5718 5705 5755 5674 5701 5764 5642 5715 5688 5678 5685 5654 5657 5665 5690 5653 5761 5673 5696 5684 5686 5753 5692 5768 5737 5737 5708 5696 5715 5701 5720 5680 5717 5655 5660 5787 5787 5745 5673 5681 5706 5670 5746 5737 5739 5701 5761 5696 5712 5702 5743 5710 5702 5735 5735 5689 5683 5721 5698 5685 5693 5675 5679 5647 5653 5738 5695 5687 5719 5689 5698 5724 5712 5738 5721 5680 5708 5668 5714 5672 5661 5682 5748 5694 5706 5720 5699 5668 5685 5710 5746 5653 5736 5721 5722 5702 5678 5709 5716 5722 5674 5708 5703 5729 5693 5706 5766 5736 5731 5705 5706 5716 5742 5711 5759 5698 5675 5739 5744 5759

Tree=0
num_leaves=63
num_cat=0
split_feature=7 9 6 10 10 9 10 2 6 9 5 9 10 2 9 10 10 6 10 1 6 1 2 1 6 9 1 5 1 1 6 2 2 2 9 2 10 4 6 7 2 10 9 2 6 2 1 6 5 2 8 1 2 5 10 7 2 7 7 9 2 10
split_gain=96.304 73.5687 138.167 24.7127 23.6089 13.7498 13.6395 12.7544 11.2102 9.28636 8.59435 8.40714 19.7648 12.1089 8.12229 21.0108 11.3167 7.89925 7.14089 7.03083 6.83721 6.56517 6.40959 5.57828 5.28417 4.98606 4.76769 4.73478 4.64239 6.20374 4.63752 4.63259 8.50471 4.61135 3.98851 4.53782 3.62564 3.57773 3.57561 4.16311 3.34686 2.94492 2.92189 2.90786 4.75325 2.93349 4.28059 2.71912 2.696 2.49415 2.43151 2.3932 2.3294 2.32031 2.16964 2.65179 3.44224 2.16709 2.11912 2.0964 2.01268 2.00926
threshold=1.1940426896747793 295.10723897833583 1.1450396728515628 40.763110326684036 37.038147511689566 294.6063359150134 15.295130397962488 -0.62588817255938378 0.75635395250822379 299.39643763491989 1025.7091064453127 295.88659966719791 35.02333213972009 0.67802080537253961 294.85369347823297 33.339394279148273 15.815993412681246 1.2708867444490137 29.647969287374746 -0.78656609248549325 1.5639580495733967 0.78656609248549303 -0.99763297024448894 -0.37940952255126015 0.65529515316611853 296.7463051243833 0.91597561503675351 720.50897216796886 -0.12940952255126037 0.91597561503675351 2.4775949417917356 0.34235194516023087 -0.23537230790205757 -0.861146256326485 294.36729415090468 -0.79384350655589164 25.744305237479832 1.5000000000000002 1.4169211618523851 1.5541932597913244 -0.15101209918632377 21.965307691822883 296.19180105108973 -0.62588817255938378 1.0356852963096219 -0.54939360607974019 -0.60355339059327384 -0.89123886911492611 121.49488830566408 -0.78326540922535159 2.2298656407050399 -0.5 -0.814291907305839 531.11099243164074 28.957415829534117 1.3616692312140219 -0.814291907305839 0.86299901058799366 1.532900792172081 294.49384389776941 -0.31799228562170639 20.885836476865023
decision_type=2 2 2 2 2 2 2 2 2 2 2 2 2 2 2 2 2 2 2 2 2 2 2 2 2 2 2 2 2 2 2 2 2 2 2 2 2 2 2 2 2 2 2 2 2 2 2 2 2 2 2 2 2 2 2 2 2 2 2 2 2 2
left_child=7 2 4 5 8 17 9 14 -2 10 42 12 13 43 15 36 25 49 21 -19 -15 23 -12 -7 47 27 -21 -16 -10 54 -5 32 51 -20 35 -26 59 60 39 -39 -34 -28 -3 -8 -45 46 -46 -17 -38 -4 -14 -24 -23 -43 -30 -56 -57 -9 -58 -1 -35 -13
right_child=1 6 3 30 -6 18 11 57 28 -11 22 61 50 20 16 24 -18 19 33 26 -22 52 31 -25 34 -27 41 -29 29 -31 -32 -33 40 37 -36 -37 48 38 -40 -41 -42 53 -44 44 45 -47 -48 -49 -50 -51 -52 -53 -54 -55 55 56 58 -59 -60 -61 -62 -63
leaf_value=5.1421325152602613 5.4486256368437349 5.330458384308705 5.384058097963762 5.4309782564990101 5.513727574463017 5.3386219277124107 5.4312285771155118 5.6922491738457586 5.4230884622471001 5.4758671346803975 5.323926934948882 5.4703464925408687 5.532013120846762 5.3637245255778527 5.3855654574465639 5.3260632641701822 5.5415398841519501 5.4245510448957726 5.3989450608156879 5.17937975112247 5.2680676703275333 5.3679892918063059 5.4024593891225408 5.2020490017920791 5.2626437357759377 5.4107682303629172 5.163665563185158 5.2482800876422351 5.2483169597430939 5.2892559047221228 5.1461098210738472 5.4763671637154063 5.2697531873802097 5.393018781765182 5.4168582870910793 5.7040599775824843 5.5793790928104405 5.336218915917085 5.2886554386524178 5.4993285597003361 5.3970581484848523 5.3182996651876744 5.4361165413495414 5.4599159531375374 5.4760634425161498 5.3635450315599682 5.3064991677750646 5.4817878012003787 5.2080611902286194 5.2123650039496994 5.4075119236202411 5.4275845947339318 5.2651757895971105 5.2426468184799351 5.3177101549395331 5.4043572929680046 5.3004731081863596 5.5006276012327096 5.423277473957639 5.3095038045308476 5.4049649955382852 5.5383494102258162
leaf_weight=21 211 40 39 206 1615 66 328 20436 52 542 46 1986 1184 32 72 240 4921 22 89 241 43 41 66 132 85 624 27 20 56 182 20 74 22 36 149 27 20 42 78 26 29 37 596 157 21 349 47 1683 78 37 95 196 105 91 24 30 36 3091 22 20 51 2870
leaf_count=21 211 40 39 206 1615 66 328 20436 52 542 46 1986 1184 32 72 240 4921 22 89 241 43 41 66 132 85 624 27 20 56 182 20 74 22 36 149 27 20 42 78 26 29 37 596 157 21 349 47 1683 78 37 95 196 105 91 24 30 36 3091 22 20 51 2870
internal_value=5.47644 5.47269 5.46669 5.4543 5.47441 5.45135 5.47518 5.47791 5.46605 5.47102 5.46832 5.47612 5.4736 5.46824 5.47618 5.47369 5.4772 5.44503 5.45604 5.44234 5.44894 5.45103 5.46289 5.4451 5.47489 5.47133 5.44081 5.46046 5.46115 5.45908 5.46943 5.46499 5.46233 5.46139 5.46821 5.46108 5.45484 5.45769 5.45291 5.46129 5.44364 5.44765 5.47202 5.46985 5.4677 5.46491 5.45541 5.47579 5.46006 5.45986 5.47769 5.46596 5.45908 5.45081 5.45215 5.45617 5.46019 5.47849 5.45308 5.44235 5.46572 5.47729
internal_weight=43824 12337 3614 1386 2228 1160 8723 31487 613 1611 1069 7112 2256 977 7960 2323 5637 494 666 418 75 344 433 198 2184 716 396 92 402 350 226 387 313 322 261 112 139 233 146 68 51 155 636 902 574 417 68 1923 98 76 1279 262 146 128 168 112 88 23527 58 41 87 4856
internal_count=43824 12337 3614 1386 2228 1160 8723 31487 613 1611 1069 7112 2256 977 7960 2323 5637 494 666 418 75 344 433 198 2184 716 396 92 402 350 226 387 313 322 261 112 139 233 146 68 51 155 636 902 574 417 68 1923 98 76 1279 262 146 128 168 112 88 23527 58 41 87 4856
is_linear=0
shrinkage=1


Tree=1
num_leaves=63
num_cat=0
split_feature=7 9 5 0 8 5 1 2 1 3 9 5 9 2 5 0 5 9 8 2 8 2 8 2 3 5 0 1 1 3 2 4 7 4 8 0 8 2 3 3 5 9 9 0 1 2 0 7 3 8 2 9 7 3 5 9 3 2 5 2 5 1
split_gain=89.1265 67.1579 119.225 33.7519 23.5348 15.1691 13.782 12.4337 11.4213 7.36155 7.10577 8.72586 5.66347 5.55292 6.34924 5.28524 6.36808 5.20704 10.9783 8.22738 5.07505 7.4224 4.85831 4.68356 10.2879 4.48536 4.35355 7.01986 4.14642 3.86172 5.56522 3.80188 3.61645 3.46692 3.36745 8.12377 6.78302 3.3371 3.27944 3.21899 3.05767 3.03336 2.97372 2.87117 2.84959 2.75912 2.67276 2.92806 2.6277 2.62968 2.69016 2.54489 4.40763 4.4406 2.43706 2.42473 2.50238 3.21949 2.53494 2.53394 2.29498 2.19597
threshold=1.2197932835629113 295.10723897833583 450.54196166992193 1.0000000180025095e-35 2.1609280208800139 374.51924133300787 -0.78656609248549325 -0.57078386445773377 0.1294095225512602 -0.99273797715557011 294.85369347823297 197.24253845214847 294.6063359150134 -0.99866806308218525 1032.862487792969 -0.25881904510252113 479.04162597656256 295.47350097656255 2.2880051444304881 0.72695311118111527 3.0316003989272811 -0.99763297024448894 4.4987961324271435 -0.92274349529687905 0.18281312110578132 574.70190429687511 -0.25881904510252113 0.1294095225512602 0.1294095225512602 -0.97507822412530132 -0.13398594226331254 5.5000000000000009 0.089190770199424355 1.5000000000000002 2.066469085002351 -0.5 2.8563684221357533 0.12545942051955489 -0.85225707553516283 -0.91595872546125101 838.82366943359386 294.58892128392273 299.10846525493429 -0.25881904510252113 -0.12940952255126037 -0.54939360607974019 -0.37940952255126059 1.5646558099043999 -0.26037106507032781 3.8112928328461231 -0.92923668111203805 294.34444339149883 1.1127467145417871 0.36447543099728863 586.96731567382824 294.88762224699332 -0.039769286347669845 -0.92923668111203805 386.15551757812506 -0.814291907305839 300.19274902343756 0.1294095225512602
decision_type=2 2 2 2 2 2 2 2 2 2 2 2 2 2 2 2 2 2 2 2 2 2 2 2 2 2 2 2 2 2 2 2 2 2 2 2 2 2 2 2 2 2 2 2 2 2 2 2 2 2 2 2 2 2 2 2 2 2 2 2 2 2
left_child=7 2 5 4 8 60 -6 10 54 -8 11 32 25 14 -3 16 28 18 -15 43 -12 -22 34 24 -24 -11 27 -7 -13 30 -25 41 61 39 -19 36 45 40 -9 -14 -37 -10 48 44 -20 -36 47 -43 49 -42 -51 52 53 -30 -4 56 57 -29 -59 -60 -2 -1
right_child=1 13 3 -5 6 26 9 38 31 12 20 15 33 17 -16 -17 -18 22 19 -21 21 -23 23 29 -26 -27 -28 55 51 -31 -32 -33 -34 -35 35 37 -38 -39 -40 -41 42 46 -44 -45 -46 -47 -48 -49 -50 50 -52 -53 -54 -55 -56 -57 -58 58 59 -61 -62 -63
leaf_value=0.010969187725270906 0.064806530213489741 -0.089231545572751689 -0.07098729155679763 -0.040908042808368086 -0.054618783933976511 -0.0006430566721761455 -0.040306786259162827 0.009299448293808155 -0.26302621864987236 -0.2602561205081167 0.036935990507023279 -0.08371067778687262 -0.17553892912992414 -0.03793064747115963 -0.14072266659133756 -0.016545208250163545 -0.24417870444888745 0.047437459682847738 -0.076249976656683593 -0.21440679239567884 -0.22813473425152281 -0.027620185196287707 -0.074571323665596004 -0.19087095934714485 0.099753888193252663 -0.28099123492765521 -0.056104663145126077 -0.14162505745758042 -0.21048040431104306 -0.0038334113214637091 0.10876193309127008 -0.22646094273580855 0.0089989193975188453 -0.26554280456431129 -0.15703050080130321 0.017236071629780324 -0.19578224024915414 0.031432505190070015 0.22233723309559578 -0.14687793054383902 -0.043197885146088022 -0.25829988191913839 -0.0032907237335538099 -0.038887866692004815 -0.16267143322513133 -0.068395241475463484 -0.077462276164630681 -0.17374537867416839 0.0049825739493927663 -0.056508901293611663 -0.07217378472036122 -0.12822079206744935 -0.10017266000069705 -0.28684625307101635 -0.14007845501657634 -0.061508335558619225 -0.043431441821300258 -0.057142490006635384 -0.033272914932367573 -0.17843827094253586 -0.058436808784996998 -0.26529909984934114
leaf_weight=99 1028 111 157 191 48 104 41 2574 87 65 5860 134 31 927 34 193 34 1785 54 20 20 284 23 23 22 174 156 31 58 170 23 51 1650 198 26 953 22 1606 20673 51 750 70 898 74 64 213 46 24 270 29 293 128 57 26 50 92 26 34 28 121 527 213
leaf_count=99 1028 111 157 191 48 104 41 2574 87 65 5860 134 31 927 34 193 34 1785 54 20 20 284 23 23 22 174 156 31 58 170 23 51 1650 198 26 953 22 1606 20673 51 750 70 898 74 64 213 46 24 270 29 293 128 57 26 50 92 26 34 28 121 527 213
internal_value=5.157e-05 -0.00365853 -0.00955188 -0.0216044 -0.0249931 -0.00234397 -0.0315461 0.00142198 -0.0167784 -0.03375 -0.000183874 -0.0023804 -0.0353613 -0.00124851 -0.0109483 -0.0075 -0.0105435 -0.00107793 -0.00421642 -0.0144811 0.000739779 -0.00555921 -0.000574866 -0.00727011 -0.0219444 -0.0410146 -0.00915541 -0.0117202 -0.00879032 -0.00421296 -0.0170652 -0.0233993 -0.000736493 -0.0305357 -0.000319576 -0.000978261 -0.00956897 -0.000511044 0.00202682 -0.0218902 -0.00144613 -0.0206278 -0.00245536 -0.0113021 -0.0161441 -0.00712343 -0.0160714 -0.0209043 -0.0039456 -0.00505597 -0.0088354 -0.0123699 -0.0170035 -0.0242857 -0.00788647 -0.0152711 -0.0179167 -0.0196963 -0.0171721 -0.0199832 0.000249196 -0.00567308
internal_weight=43824 11821 3431 1284 1093 2147 608 32003 485 560 8756 2592 519 8390 145 630 437 8245 1139 212 6164 304 7106 261 45 239 592 436 403 216 46 278 1962 280 6845 5060 261 4799 23247 82 3193 227 2240 192 118 239 140 94 1342 1072 322 269 141 84 207 332 240 214 183 149 1555 312
internal_count=43824 11821 3431 1284 1093 2147 608 32003 485 560 8756 2592 519 8390 145 630 437 8245 1139 212 6164 304 7106 261 45 239 592 436 403 216 46 278 1962 280 6845 5060 261 4799 23247 82 3193 227 2240 192 118 239 140 94 1342 1072 322 269 141 84 207 332 240 214 183 149 1555 312
is_linear=0
shrinkage=0.05


Tree=2
num_leaves=63
num_cat=0
split_feature=6 9 0 10 8 10 9 2 10 0 10 2 2 5 2 2 2 4 1 5 1 1 10 1 9 10 0 5 9 2 5 1 2 6 9 10 2 1 10 4 6 4 5 2 2 9 2 1 4 4 1 6 10 9 10 5 10 5 1 6 2 1
split_gain=71.782 170.073 48.7299 54.1624 26.4159 18.9505 15.3386 12.1168 11.7033 16.6131 10.7361 10.444 9.22046 9.1094 8.20384 8.5739 9.38667 6.82667 6.79901 6.51028 6.41666 5.36733 5.26676 8.10315 4.90088 15.7278 5.61273 4.78761 4.43804 4.34022 4.10986 3.93835 3.81734 4.35966 3.74529 3.67428 5.0535 3.21771 3.05062 2.9789 4.81947 2.80959 2.8573 2.70106 2.82033 2.6322 2.6192 2.59501 2.53295 2.52665 2.47208 2.3636 2.41646 2.33683 2.21358 2.187 2.16443 2.08397 2.07543 2.28499 2.01125 2.13758
threshold=0.93886900249280447 295.09057159423838 -0.25881904510252113 40.763110326684036 2.1949570630268185 16.148193587427553 295.88659966719791 -0.99763297024448894 35.02333213972009 -0.25881904510252113 31.927977230237882 0.67802080537253961 -0.67803021058859214 904.60440063476574 0.12545942051955489 -0.26866367175705824 -0.16799356919963607 4.5000000000000009 -0.37940952255126015 610.18344116210949 -0.12940952255126037 -0.12940952255126037 30.518044927845832 0.98296291314453421 294.74801248650812 37.330026916835621 -0.25881904510252113 392.90568542480474 297.0546366320159 -0.01397611846945947 455.58560180664068 -0.12940952255126037 -0.8781231054254196 1.3500112754420233 297.34249421772216 30.518044927845832 -0.78326540922535159 -0.37940952255126015 14.036785975746488 1.0000000180025095e-35 -0.74627153898540299 1.5000000000000002 541.95223999023449 -0.50556189049999822 -0.59869031648930193 299.26428306178053 -0.048361574224334618 1.0000000180025095e-35 2.5000000000000004 2.5000000000000004 0.98296291314453421 3.0608744571083477 11.902570206186047 299.39643763491989 20.885836476865023 647.96298217773449 18.632351294807766 405.56054687500006 1.0000000180025095e-35 2.8023425774825257 0.056951373111866731 -0.37940952255126015
decision_type=2 2 2 2 2 2 2 2 2 2 2 2 2 2 2 2 2 2 2 2 2 2 2 2 2 2 2 2 2 2 2 2 2 2 2 2 2 2 2 2 2 2 2 2 2 2 2 2 2 2 2 2 2 2 2 2 2 2 2 2 2 2
left_child=12 2 3 4 10 7 8 13 9 11 32 20 24 -3 15 53 17 -17 48 -5 55 -12 23 56 25 26 31 -23 47 -18 -22 -1 33 -2 -15 -33 -37 -34 39 40 -26 46 -43 44 -32 -31 -20 -16 -6 -39 -11 -36 -53 58 60 -7 -4 -25 59 -9 61 -8
right_child=1 5 22 19 18 6 54 14 -10 50 21 -13 -14 34 28 16 29 -19 41 -21 30 27 -24 57 38 -27 -28 -29 -30 45 43 35 37 -35 51 36 -38 49 -40 -41 -42 42 -44 -45 -46 -47 -48 -49 -50 -51 -52 52 -54 -55 -56 -57 -58 -59 -60 -61 -62 -63
leaf_value=0.028077734846835914 -0.12479138519986543 -0.049779438714376796 -0.12478736895728 -0.046083748961282069 -0.038442819242231779 -0.023060291942553445 -0.028846704864788172 -0.045483939547727802 0.0070985010569731312 0.018724652965062972 -0.042145710411414281 -0.22509295176892394 0.17278832001238045 -0.20172854219811934 -0.14497594652773077 -0.17945135448160765 -0.00071838632023127726 -0.014444020378821776 -0.18362802399861822 -0.24533382553773431 -0.10847796677155662 -0.047508812455594004 0.018599324481360199 -0.10953068897036806 0.08899719126822464 -0.016094215950715186 -0.077572054898027931 -0.13617233077887486 0.020833356598851174 -0.08283916455707932 -0.049071713402051076 -0.29792230846496259 -0.09688101732129431 -0.24381192145974234 -0.06775959189379975 -0.12407449984289681 -0.16083352125394343 -0.2352741343236977 0.080110571964545949 -0.029352911946380279 -0.12120843582546073 -0.25177731983664386 -0.26684820770459899 -0.21315423207932085 -0.16223603741052101 -0.066374438778768946 -0.088948431267733274 -0.043283700465108148 -0.12912833226889076 -0.27807342430798082 -0.11958064297149246 -0.20958798407934187 -0.12277865999822267 -0.0041855114970985969 0.088934812581154932 -0.10574669163347888 -0.015298548226588694 -0.18002734923772556 -0.027817534455088028 -0.056461146108240982 0.041209900747785175 0.012616983420517326
leaf_weight=25 74 63 39 379 28 125 797 284 908 403 78 50 22765 23 22 50 96 25 96 50 100 69 311 21 22 2186 97 198 879 29 23 47 28 43 35 79 37 46 3450 196 29 49 195 98 25 40 21 25 37 127 35 21 37 347 5493 75 188 73 449 339 834 1011
leaf_count=25 74 63 39 379 28 125 797 284 908 403 78 50 22765 23 22 50 96 25 96 50 100 69 311 21 22 2186 97 198 879 29 23 47 28 43 35 79 37 46 3450 196 29 49 195 98 25 40 21 25 37 127 35 21 37 347 5493 75 188 73 449 339 834 1011
internal_value=9.60661e-05 -0.00272463 -0.0157326 -0.0205896 -0.0265174 -0.000529589 0.000485366 -0.0041932 -0.00363464 -0.00756424 -0.0202753 -0.0138306 0.0015478 -0.0167737 -0.00332205 -0.00542646 -0.0141667 -0.0288333 -0.0362324 -0.00554196 -0.0114013 -0.0141667 -0.00406646 -0.00855919 -0.000166991 -0.00189093 -0.0129386 -0.0175375 0.000448164 -0.0075 -0.0168089 -0.0179787 -0.0269025 -0.0197222 -0.0250862 -0.0208129 -0.0160345 -0.0310821 0.000985258 -0.00438259 -0.0151471 -0.0389127 -0.0419672 -0.0221575 -0.031875 -0.0170652 -0.0325427 -0.0145213 -0.0213462 -0.0336272 -0.000468036 -0.0206183 -0.0268103 -0.0039482 0.00141825 -0.00475 -0.00344714 -0.0209043 -0.00510261 -0.0069703 0.000228993 -0.000707965
internal_weight=43824 14891 2150 1518 1089 12741 9977 2764 1842 934 663 496 28933 179 2585 1659 240 75 426 429 446 345 632 321 6168 2471 285 267 926 165 246 188 318 117 116 163 116 201 3697 247 51 361 244 146 48 69 117 47 65 173 438 93 58 1419 8135 200 227 94 1072 623 2642 1808
internal_count=43824 14891 2150 1518 1089 12741 9977 2764 1842 934 663 496 28933 179 2585 1659 240 75 426 429 446 345 632 321 6168 2471 285 267 926 165 246 188 318 117 116 163 116 201 3697 247 51 361 244 146 48 69 117 47 65 173 438 93 58 1419 8135 200 227 94 1072 623 2642 1808
is_linear=0
shrinkage=0.05


Tree=3
num_leaves=63
num_cat=0
split_feature=6 9 10 0 8 10 2 9 10 2 10 3 0 6 2 2 2 1 10 9 1 2 1 10 9 4 3 3 3 9 2 1 10 3 2 6 2 10 3 9 9 10 0 1 10 2 8 9 10 10 6 9 2 10 1 4 9 3 3 8 0 10
split_gain=65.0041 138.458 56.3179 53.5601 29.0767 19.7367 12.233 11.6078 11.7464 11.9738 11.2607 10.2509 9.3348 8.10617 7.87932 8.01752 8.31543 6.83268 6.2567 6.17815 5.75957 5.74929 5.29291 5.34916 4.76304 5.34567 4.74193 4.66546 4.37662 4.35613 4.27044 4.21071 3.74511 4.39744 3.74202 3.52225 3.29065 2.89417 2.71142 2.93807 2.67027 6.92247 3.45481 4.22921 5.97928 3.79142 2.9356 2.56226 2.70941 2.55414 3.16444 2.49035 4.00146 2.43318 2.39742 2.39337 3.02098 2.33654 2.25177 2.12129 6.42728 8.37321
threshold=0.75635395250822379 295.09057159423838 40.763110326684036 -0.25881904510252113 2.1949570630268185 16.148193587427553 -0.99763297024448894 295.64065498753615 35.02333213972009 0.67802080537253961 30.30051567243493 -0.99465740988130902 -0.5 2.9575025217156665 0.12545942051955489 -0.26866367175705824 -0.16799356919963607 -0.12940952255126037 23.932794487994652 299.53368851511112 -0.12940952255126037 -0.44504625642270151 0.98296291314453421 30.30051567243493 294.90417421039791 5.5000000000000009 -0.056951011027366626 -0.92272482904738262 -0.49812626372919411 297.56380867405943 0.52766072109828632 -0.12940952255126037 11.353658966396166 1.0000000180025095e-35 -0.01397611846945947 2.6212637489720403 -0.38242426011641079 18.632351294807766 0.063390085881955341 299.39643763491989 295.32027316444811 37.330026916835621 -1.0000000180025095e-35 0.1294095225512602 26.367984232695211 -0.73866753694953124 1.3791323168415859 294.78272552490245 32.648827469867207 13.85414395125016 0.083984471371299316 294.81716045178871 -0.77245553105869302 21.774006967959199 1.0000000180025095e-35 2.5000000000000004 299.30786876477697 -0.039769286347669845 -0.88620506325989179 2.066469085002351 -0.5 29.420566351517383
decision_type=2 2 2 2 2 2 2 2 2 2 2 2 2 2 2 2 2 2 2 2 2 2 2 2 2 2 2 2 2 2 2 2 2 2 2 2 2 2 2 2 2 2 2 2 2 2 2 2 2 2 2 2 2 2 2 2 2 2 2 2 2 2
left_child=21 2 3 4 10 6 13 8 9 12 24 -6 18 57 15 38 19 -12 -7 -17 27 40 37 53 25 26 -2 -13 30 54 -19 -20 -15 -34 -18 -4 -26 -5 39 -8 41 42 43 -1 -45 46 -46 48 -29 50 -42 -22 -53 -24 -16 -36 -57 -3 -55 -9 61 -61
right_child=1 5 35 22 11 7 14 59 -10 -11 17 20 -14 32 29 16 34 28 31 -21 51 -23 23 -25 36 -27 -28 47 -30 -31 -32 -33 33 -35 55 -37 -38 -39 -40 -41 49 -43 -44 44 45 -47 -48 -49 -50 -51 -52 52 -54 58 -56 56 -58 -59 -60 60 -62 -63
leaf_value=-0.03437846484852241 -0.24701996846690288 -0.086552225100172103 -0.042624479173668878 -0.118548000509416 -0.026653436388582044 -0.25282257359035842 -0.048926829322589571 0.091794182971255286 0.0057998214177865763 -0.24282991192832465 -0.030307692170194141 -0.14091835941395642 -0.02789548713632637 -0.20230964962106379 -0.13746477483735769 -0.17208683545893352 -0.00215809338748727 -0.14326317654837756 -0.07896171480307701 -0.040255672418761004 -0.25620703043292414 0.20659264267258459 -0.23672731799023086 -0.070288034844660882 -0.073169226962536402 -0.25486776675394635 -0.23699538885319474 -0.11948232861204083 -0.12118961400181552 0.026198674054165007 0.0010124634925635315 -0.14105981314839758 -0.12596630823848964 -0.032437704474935096 -0.011434975744568612 -0.28408198479074359 -0.21420720613008282 0.0056430509439389515 0.0026073706156739631 -0.010458833384245306 -0.013148010596913376 0.013447753042731103 0.022871917925470497 -0.29773734169202376 -0.18119244493837275 -0.055497913619716358 -0.045609051995755094 -0.00037654457206991588 -0.079453468493012769 0.14712847553943253 -0.14870131555215779 -0.024678014207400168 -0.23491282392517854 -0.17068587459267703 -0.0092316141324579448 -0.07918183994997291 -0.063760398043040734 -0.097806271752025345 -0.09783701894261719 -0.13487484447222733 0.019031354277819171 -0.039765092647686018
leaf_weight=126 131 26 965 39 28 24 793 4897 984 41 106 20 391 24 43 44 97 278 129 31 227 19246 20 104 43 61 41 20 145 845 20 177 28 24 21 22 24 331 345 300 339 3902 128 20 52 67 37 20 21 2560 48 22 68 29 51 22 26 78 54 55 4810 154
leaf_count=126 131 26 965 39 28 24 793 4897 984 41 106 20 391 24 43 44 97 278 129 31 227 19246 20 104 43 61 41 20 145 845 20 177 28 24 21 22 24 331 345 300 339 3902 128 20 52 67 37 20 21 2560 48 22 68 29 51 22 26 78 54 55 4810 154
internal_value=0.000115462 -0.00226906 -0.0123644 -0.0175054 -0.0232255 -0.000286999 -0.00405826 0.000617819 -0.00314147 -0.00780184 -0.0178769 -0.033885 -0.00630721 -0.0166667 -0.00319137 -0.0052427 -0.0136826 -0.0136202 -0.0125 -0.0275 -0.0359422 0.00167059 -0.00486568 -0.0112681 -0.0256667 -0.0290451 -0.0245349 -0.0240432 -0.0163488 0.000476571 -0.0198154 -0.0105719 -0.0290789 -0.0215385 -0.00743976 -0.00271783 -0.0139179 -0.00128378 -0.00382823 -0.00504803 0.000473623 -0.000316251 -0.00633721 -0.00925497 -0.0142614 -0.0109615 -0.0177247 -0.0171721 -0.0243293 0.00163471 -0.00215116 -0.0389826 -0.0319444 -0.0193447 -0.00973404 -0.0163406 -0.0225 -0.00759615 -0.0155723 0.00127975 0.000557382 -0.00802632
internal_weight=43824 17299 2839 1852 1275 14460 2798 11662 1746 762 849 426 721 180 2618 1679 241 549 330 75 398 26525 577 207 300 233 172 81 443 939 298 306 76 52 166 987 67 370 1438 1093 7279 4332 430 302 176 156 89 61 41 2947 387 317 90 103 94 69 48 104 83 9916 5019 209
internal_count=43824 17299 2839 1852 1275 14460 2798 11662 1746 762 849 426 721 180 2618 1679 241 549 330 75 398 26525 577 207 300 233 172 81 443 939 298 306 76 52 166 987 67 370 1438 1093 7279 4332 430 302 176 156 89 61 41 2947 387 317 90 103 94 69 48 104 83 9916 5019 209
is_linear=0
shrinkage=0.05


Tree=4
num_leaves=63
num_cat=0
split_feature=7 9 8 0 5 9 2 9 2 0 5 3 1 9 8 2 5 4 0 1 1 5 8 2 2 3 8 0 7 2 2 9 3 3 1 0 5 3 2 8 3 9 8 2 0 7 5 8 2 1 0 4 3 4 5 1 0 9 4 5 9 5
split_gain=66.1731 42.2263 79.2822 28.8109 17.1629 16.6248 10.7223 8.66134 7.42788 7.39911 6.90827 12.1454 6.50128 6.29846 8.26328 5.5725 9.09309 5.35777 4.22751 4.14127 4.12879 3.99473 3.945 7.96498 3.6175 3.39802 3.38189 8.75863 6.79753 3.88945 3.20318 2.94667 2.78045 3.25597 2.73233 4.63883 5.87176 2.833 3.06994 3.17866 2.67565 3.04366 2.66945 3.46039 2.63629 2.56762 3.05044 2.51223 2.50233 2.47566 2.58953 2.44218 2.39364 2.37 2.31773 2.24025 3.1673 2.35627 2.14056 2.13796 2.86102 2.07854
threshold=1.1940426896747793 295.43316425524267 2.066469085002351 -0.25881904510252113 389.55863952636724 294.81716045178871 -0.62588817255938378 294.88762224699332 -0.58482361983252518 0.12940952255126045 568.50469970703136 -0.99052477729077237 0.1294095225512602 294.67755650570524 1.2525637948130055 -0.99763297024448894 1032.862487792969 5.5000000000000009 -0.25881904510252113 -0.12940952255126037 0.98296291314453421 469.92448425292974 2.5882719536937655 -0.99866806308218525 0.72695311118111527 -0.58481178939031186 2.3280757114037942 -0.25881904510252113 2.0797715317575562 0.12545942051955489 -0.52032787705993211 295.09057159423838 -0.92272482904738262 -0.99052477729077237 0.37940952255126048 -1.0000000180025095e-35 245.41570281982425 -0.97111920233974802 0.52766072109828632 1.3585632473379035 -0.88620506325989179 294.24860043174345 4.4987961324271435 -0.21861968191509915 -0.37940952255126059 0.24392653615851159 149.96589660644534 2.5367321599732775 -0.88622299073327826 -0.12940952255126037 -0.37940952255126059 2.5000000000000004 1.0000000180025095e-35 1.5000000000000002 296.29792785644537 -0.37940952255126015 0.37940952255126054 299.30786876477697 3.5000000000000004 1016.9682617187501 298.25013871042353 455.58560180664068
decision_type=2 2 2 2 2 2 2 2 2 2 2 2 2 2 2 2 2 2 2 2 2 2 2 2 2 2 2 2 2 2 2 2 2 2 2 2 2 2 2 2 2 2 2 2 2 2 2 2 2 2 2 2 2 2 2 2 2 2 2 2 2 2
left_child=6 2 4 5 54 10 13 9 -7 12 40 -12 -6 14 45 16 -3 21 -16 51 -5 -14 -15 -24 30 34 -17 28 -28 42 -10 32 33 -32 -8 36 -36 -38 39 -39 -4 -42 55 -44 -23 48 -47 -22 -1 -9 61 -13 -18 -21 -2 56 -29 59 -41 -58 -61 -51
right_child=1 15 3 20 7 8 25 49 24 -11 11 19 17 22 18 26 52 -19 -20 53 47 44 23 -25 -26 -27 27 29 -30 -31 31 -33 -34 -35 35 -37 37 38 -40 58 41 -43 43 -45 -46 46 -48 -49 -50 50 -52 -53 -54 -55 -56 -57 57 -59 -60 60 -62 -63
leaf_value=0.053380226469374341 0.044556341393730332 -0.042080066456044098 -0.27824220482664436 -0.052191843162078172 -0.068570975679106944 -0.040827623760209035 0.036865833282651306 0.036419464415058882 -0.14009149749418223 0.032928956561123338 -0.061758110132251146 -0.033453941221832768 -0.16037000362933521 0.036631921885114119 -0.15755004058793978 0.027913743561436728 -0.1031485565381014 -0.18785323544411861 -0.053235768942169109 -0.19019424775442068 -0.12306596285347007 -0.23440914940292373 -0.19087608162871228 -0.020041123390341295 -0.2781320290256038 0.25495738011554159 -0.10579906652891663 0.00051982093021573728 -0.17296743771602208 0.021428979055960196 -0.033000806842893408 -0.11806268290939544 -0.080540771725420401 -0.20758159888936012 -0.01133799309932897 0.06909179659290253 -0.017558408848671717 -0.1673046807833117 -0.19042126453441996 -0.05059985816494126 -0.21954257753612466 -0.080210990163258777 -0.027085420380453942 -0.1597303801292449 -0.17011618010237861 0.062236399388986924 -0.12344928599377639 -0.2168788524170549 -0.23796441537423171 -0.068261268384854135 -0.001189483867192058 -0.11916952252916035 -0.1738860815648752 -0.25265921355685961 -0.039872736369267324 -0.0028345494838164058 -0.047494841580016954 -0.010666328291259191 -0.15804637902163202 -0.084684727742891763 -0.057753286544578356 -0.10697304808062549
leaf_weight=89 1220 123 28 278 152 116 2744 248 29 91 32 22 205 5500 195 2644 28 53 88 56 71 60 31 488 28 19682 141 503 26 1525 24 117 45 71 322 601 55 37 33 29 37 88 136 38 43 1002 366 31 201 174 142 38 25 128 973 1629 290 326 24 75 123 105
leaf_count=89 1220 123 28 278 152 116 2744 248 29 91 32 22 205 5500 195 2644 28 53 88 56 71 60 31 488 28 19682 141 503 26 1525 24 117 45 71 322 601 55 37 33 29 37 88 136 38 43 1002 366 31 201 174 142 38 25 128 973 1629 290 326 24 75 123 105
internal_value=0.000169085 -0.00293487 -0.00666047 -0.0175161 -0.00277986 -0.0225873 0.00138525 -0.00739788 -0.0156395 -0.0117384 -0.0295513 -0.0342754 -0.0140692 -0.000201005 -0.00267774 -0.000638103 -0.00943182 -0.0177216 -0.0105742 -0.0380738 -0.00605263 -0.0151948 0.000597691 -0.00356936 -0.0196338 0.00192194 -0.000430526 -0.00121987 -0.0124701 -0.000815393 -0.0179545 -0.016177 -0.0210714 -0.0259211 0.000562419 -0.00154178 -0.0051 -0.0123876 -0.0166057 -0.0213889 -0.0210294 -0.0179 -0.00182692 -0.00784483 -0.0232282 -0.00132992 -0.000423977 -0.0146569 -0.00560345 -0.00347907 -0.00581354 -0.0266667 -0.0267453 -0.0417935 -9.91791e-05 -0.00147149 -0.00300494 -0.00493243 -0.0135377 -0.00713115 -0.0111364 -0.00861111
internal_weight=43824 12337 4705 1239 3466 859 31487 1273 430 604 429 276 513 7960 1941 7632 176 361 283 244 380 308 6019 519 314 23527 7456 4812 167 4645 286 257 140 95 3845 1101 500 178 123 90 153 125 3120 174 103 1658 1368 102 290 669 421 60 53 184 2193 2946 1317 814 53 488 198 279
internal_count=43824 12337 4705 1239 3466 859 31487 1273 430 604 429 276 513 7960 1941 7632 176 361 283 244 380 308 6019 519 314 23527 7456 4812 167 4645 286 257 140 95 3845 1101 500 178 123 90 153 125 3120 174 103 1658 1368 102 290 669 421 60 53 184 2193 2946 1317 814 53 488 198 279
is_linear=0
shrinkage=0.05


Tree=5
num_leaves=63
num_cat=0
split_feature=3 9 5 0 10 10 10 2 3 0 10 9 9 10 0 1 1 10 2 1 9 5 2 2 2 4 5 2 10 1 10 9 9 9 10 0 10 2 5 9 10 3 9 2 4 8 0 10 1 5 5 0 1 4 8 9 2 5 10 1 10 8
split_gain=32.8441 51.7577 104.947 23.8847 28.8522 18.4357 18.1979 16.3429 9.7333 8.78316 8.69397 8.50602 7.04613 16.772 9.65444 6.60082 6.11984 5.91196 6.40324 5.56014 5.41797 10.365 10.3054 15.8556 5.24592 5.07277 4.64216 4.28829 4.0728 4.06875 4.34795 3.89373 3.82066 3.63523 8.07184 5.90133 3.38 3.32793 2.98328 3.03466 2.95861 2.80956 3.13308 3.92653 4.19819 2.7139 5.25383 7.02791 3.52913 2.70842 2.6994 2.60579 3.20047 2.92832 3.86523 2.56588 2.541 2.50216 2.45929 2.4285 2.42645 2.40385
threshold=0.04621408538533487 295.09057159423838 450.54196166992193 -0.25881904510252113 33.339394279148273 37.330026916835621 16.494308119234834 0.12545942051955489 -0.99465740988130902 -0.25881904510252113 41.292719301970116 294.87163153397421 295.64065498753615 33.339394279148273 1.0000000180025095e-35 -0.37940952255126015 0.37940952255126048 27.418493809907329 -0.33425342068356556 -0.12940952255126037 299.53368851511112 1057.7946777343752 -0.92923668111203805 -0.25205528343633254 -0.43733984355855576 1.0000000180025095e-35 455.58560180664068 -0.38242426011641079 30.30051567243493 0.98296291314453421 29.861013412475586 294.53062887091397 297.0546366320159 295.1418050986843 26.367984232695211 -0.5 13.85414395125016 -0.77245553105869302 568.50469970703136 294.24860043174345 55.800692516824476 -0.89404254237865755 294.85369347823297 -0.47558551945199218 4.5000000000000009 1.9789392267920312 -0.5 29.420566351517383 -0.12940952255126037 1209.4028320312502 610.18344116210949 -0.25881904510252113 0.1294095225512602 5.5000000000000009 1.245332753499915 295.58019370631183 -0.18492532721306487 498.53909301757818 11.650670466215715 0.1294095225512602 18.632351294807766 1.7402797750166032
decision_type=2 2 2 2 2 2 2 2 2 2 2 2 2 2 2 2 2 2 2 2 2 2 2 2 2 2 2 2 2 2 2 2 2 2 2 2 2 2 2 2 2 2 2 2 2 2 2 2 2 2 2 2 2 2 2 2 2 2 2 2 2 2
left_child=1 2 5 4 8 9 7 20 -4 16 19 25 13 14 15 27 -1 18 -17 -6 21 55 49 -24 33 -10 -19 -8 41 60 -31 -21 -9 34 35 -2 -35 -13 39 -27 51 -18 43 44 -43 -14 47 48 -47 58 -12 52 -36 -54 -55 -3 -25 -28 -23 -39 -5 -29
right_child=24 6 3 29 10 -7 12 32 11 -11 50 37 45 -15 -16 17 28 26 -20 31 -22 22 23 56 -26 38 57 61 -30 30 -32 -33 -34 36 40 -37 -38 59 -40 -41 -42 42 -44 -45 -46 46 -48 -49 -50 -51 -52 -53 53 54 -56 -57 -58 -59 -60 -61 -62 -63
leaf_value=-0.062625291959007318 -0.24413134504197354 -0.16623151500858235 -0.079825965241912503 -0.11991119310763826 -0.045428714710920803 0.011677752838882081 0.045113102488509554 -0.12473678213309509 -0.12094643244240133 -0.040094664293018376 -0.0038107496759278688 -0.061767174336385178 0.10900282531004923 0.016218149583674853 0.024570182968488966 -0.16092071384966702 -0.21873941345238679 -0.037343206114144066 -0.14782805560083653 -0.1268179309347752 -0.018567306109621116 -0.18302695891894588 -0.04589332270759594 -0.16407266790265679 0.3094368914275421 -0.26158528006428272 -0.12318737001221967 0.072570341508149575 -0.10719496993246934 -0.18383651181689736 -0.059814473693970464 -0.091335423425947138 0.024954754398422273 -0.034998213996502887 -0.00024706634382333422 -0.069027219826480926 0.11647382274290041 -0.1308878624347585 -0.244744665018372 -0.22159118868565036 0.039851561549134558 -0.098189080865188266 -0.099494655998933063 -0.021397710692495797 -0.20875325214000418 -0.057299802799364724 0.0176768877360533 -0.029947304010449802 -0.14339878856179708 -0.083601899355871909 -0.22422163752123928 0.10007968655229081 -0.13544193452343098 -0.26285152294506159 -0.08579199830437452 -0.047219164685457594 -0.065227113872938031 -0.19173108804503597 -0.064007831303467155 -0.19272295376381637 -0.011464562045515138 -0.083055147802226031
leaf_weight=136 38 26 27 25 73 2968 102 68 34 280 131 31 7152 2200 187 30 28 109 76 66 452 22 234 24 13824 29 21 20 213 53 59 111 1227 546 256 55 3786 44 160 110 2163 33 25 23 26 28 4363 196 33 23 47 238 295 26 37 767 37 56 67 62 201 45
leaf_count=136 38 26 27 25 73 2968 102 68 34 280 131 31 7152 2200 187 30 28 109 76 66 452 22 234 24 13824 29 21 20 213 53 59 111 1227 546 256 55 3786 44 160 110 2163 33 25 23 26 28 4363 196 33 23 47 238 295 26 37 767 37 56 67 62 201 45
internal_value=0.000231836 -0.00109707 -0.00558809 -0.0180463 -0.0222027 -0.00137192 0.000180046 -0.00340431 -0.0303974 -0.00829843 -0.0126869 -0.0320745 0.000902654 -0.00132994 -0.00841331 -0.0123148 -0.012376 -0.0168493 -0.0262736 -0.0187 -0.00670097 -0.00845833 -0.0149447 -0.0100424 0.00164174 -0.0363889 -0.0114785 -0.00438623 -0.0158908 -0.0066716 -0.0144643 -0.0234887 0.000801158 0.000571237 -0.000733591 -0.0152419 0.00150739 -0.0215876 -0.0384699 -0.0331115 -0.00028607 -0.0226852 -0.0189953 -0.0237195 -0.0305508 0.00144241 0.000497836 -0.00644942 -0.0212705 -0.0278571 -0.00424157 -0.00278169 -0.00450326 -0.00755587 -0.0173413 -0.00512926 -0.0327459 -0.0208766 -0.0239045 -0.0258019 -0.00280973 -0.0144231
internal_weight=43824 22560 4995 1263 925 3732 17565 2947 497 764 428 470 14618 2846 646 459 484 292 106 250 1652 1200 407 295 21264 333 186 167 348 338 112 177 1295 7440 3108 93 4332 137 299 139 3015 135 107 82 59 11772 4620 257 61 112 178 852 614 358 63 793 61 77 89 106 226 65
internal_count=43824 22560 4995 1263 925 3732 17565 2947 497 764 428 470 14618 2846 646 459 484 292 106 250 1652 1200 407 295 21264 333 186 167 348 338 112 177 1295 7440 3108 93 4332 137 299 139 3015 135 107 82 59 11772 4620 257 61 112 178 852 614 358 63 793 61 77 89 106 226 65
is_linear=0
shrinkage=0.05


Tree=6
num_leaves=63
num_cat=0
split_feature=7 9 6 0 9 6 2 2 3 5 1 9 6 2 1 0 1 5 9 3 2 2 6 3 7 6 2 9 3 5 1 0 6 2 9 7 6 7 0 7 2 2 6 1 3 3 1 0 6 2 9 9 2 5 4 1 0 5 4 9 4 2
split_gain=55.5156 34.5386 70.0372 26.0167 17.302 12.736 10.0165 7.35898 6.24566 7.02232 6.36523 5.41746 7.26378 5.01705 4.79628 10.2337 4.72365 4.56847 4.45994 6.73802 4.20762 3.94351 8.9108 6.94231 3.8929 3.64666 6.34784 3.49183 3.37445 3.36013 3.25399 2.96993 2.85765 2.7224 2.65931 2.56705 2.40525 2.24762 6.70382 8.93682 3.09897 4.85756 6.8075 2.45117 2.25955 3.55118 2.12579 4.28062 3.4548 2.02719 2.00403 1.88511 1.84857 1.84059 1.82363 1.81148 1.89454 2.66575 2.51553 2.08696 1.91951 1.80424
threshold=1.2197932835629113 295.39566865619867 1.3713968377364314 -0.25881904510252113 294.78272552490245 0.75635395250822379 -0.44504625642270151 -0.59869031648930193 -0.99052477729077237 563.15704345703136 -0.12940952255126037 295.07358844957861 0.65529515316611853 0.73865729060996177 0.37940952255126048 -1.0000000180025095e-35 0.1294095225512602 441.18872070312506 294.53062887091397 0.60383265664488517 -0.50556189049999822 -0.99763297024448894 3.1672061799701896 1.0000000180025095e-35 1.1127467145417871 1.986579846833882 -0.99763297024448894 294.81716045178871 -0.58481178939031186 498.53909301757818 0.98296291314453421 -0.25881904510252113 2.1482519210012341 -0.26866367175705824 294.24860043174345 0.089190770199424355 2.6594713070518101 1.5778759605006172 -0.25881904510252113 2.0797715317575562 -0.13398594226331254 -0.21861968191509915 3.4412969970703124 0.1294095225512602 -0.67801649466304881 -0.93543596745397617 0.37940952255126048 -1.0000000180025095e-35 1.4169211618523851 -0.98803845231459242 296.68466873972051 294.64412056370799 -0.11692013674435776 245.41570281982425 1.5000000000000002 0.1294095225512602 -1.0000000180025095e-35 105.70717239379884 5.5000000000000009 294.36729415090468 1.5000000000000002 -0.065535378769913874
decision_type=2 2 2 2 2 2 2 2 2 2 2 2 2 2 2 2 2 2 2 2 2 2 2 2 2 2 2 2 2 2 2 2 2 2 2 2 2 2 2 2 2 2 2 2 2 2 2 2 2 2 2 2 2 2 2 2 2 2 2 2 2 2
left_child=6 2 5 4 8 -2 11 -6 -4 34 -11 12 35 16 -7 17 61 -16 19 24 -18 22 -3 -24 -14 -13 36 -19 46 -20 49 -31 -32 -22 -10 55 -27 -23 39 43 41 -40 -43 -39 45 -45 -8 48 53 -5 -28 -36 -35 -48 -12 -1 57 -57 59 -59 -61 -9
right_child=1 21 3 30 7 14 28 13 9 10 54 25 18 -15 15 -17 20 27 29 -21 33 37 23 -25 -26 26 50 -29 -30 31 32 -33 -34 52 51 -37 -38 38 40 -41 -42 42 -44 44 -46 -47 47 -49 -50 -51 -52 -53 -54 -55 -56 56 -58 58 -60 60 -62 -63
leaf_value=0.011359283623216627 0.049694841299774584 -0.039494891947829618 -0.27563776947924118 -0.09843339806435189 -0.032200024956653389 -0.040413643257570214 0.037198210619492127 -0.12570562624676881 -0.23685946160582438 -0.095769188128873473 -0.16959541561249408 0.061485234239953862 -0.20460997713944595 -0.25670264933371012 -0.10230083164474724 -0.016920864159041173 -0.12652297053880573 -0.19526789285528903 -0.0068332924421570379 0.22804448141124267 -0.15340941738765262 0.0072177562612610576 -0.11651224869551838 -0.025799566669417323 -0.12952400844814124 -0.056732963273724457 -0.044003006078390097 -0.07773649086131737 0.25438878237487844 -0.095434309458776248 -0.111167849720364 -0.079845672987512634 -0.20235017520508505 -0.2098638113935159 -0.1464123265699537 0.0064739690818352907 -0.17373151589163113 -0.039050558457417908 -0.017087708233226917 -0.15856727006468288 0.022308674269454386 -0.065398553556740846 -0.14756034940129278 -0.02512409469655837 0.057450293507072286 -0.094705550664676064 -0.027730731138776783 0.073157088060388148 -0.24193632509839877 -0.022316613715840108 -0.00086014769194791793 -0.062112293230631867 -0.091625359376993204 -0.082127959578859933 -0.22578925262265789 -0.19123802179854907 0.021246405307173952 -0.23401676964203277 0.0044604729162135209 -0.26286441101148855 -0.10988270432613859 -0.018976431617755547
leaf_weight=218 1354 124 33 28 136 639 2659 84 31 59 57 5444 113 26 549 405 22 97 284 70 51 3795 26 26 78 40 77 94 18189 23 83 26 20 26 59 2375 28 195 1611 26 1404 60 43 52 28 72 327 603 20 246 876 23 60 165 131 177 99 23 20 37 32 46
leaf_count=218 1354 124 33 28 136 639 2659 84 31 59 57 5444 113 26 549 405 22 97 284 70 51 3795 26 26 78 40 77 94 18189 23 83 26 20 26 59 2375 28 195 1611 26 1404 60 43 52 28 72 327 603 20 246 876 23 60 165 131 177 99 23 20 37 32 46
internal_value=0.000246669 -0.00268146 -0.0062176 -0.016378 -0.0212559 -0.00226418 0.00132823 -0.0145732 -0.0289249 -0.0308333 -0.0355567 1.99204e-05 -0.00154196 -0.0187698 -0.00503924 -0.00697598 -0.0168772 -0.010473 -0.00659091 -0.0114847 -0.0226572 -0.000615787 -0.00801136 -0.0253846 -0.0163482 0.000883604 -0.00185847 -0.0171335 0.00192631 -0.00275526 -0.00545756 -0.0148469 -0.013034 -0.0193978 -0.0205088 -0.000535894 -0.0166176 -0.00043714 -0.00135276 -0.00768767 -0.000594933 -0.00202159 -0.0125485 -0.00556916 -0.0103289 -0.0132258 0.000565713 -0.00126682 -0.00462891 -0.00260949 -0.000805351 -0.0157927 -0.0248256 -0.00380081 -0.0400532 -0.00344059 -0.00548969 -0.0075346 -0.0135714 -0.0170652 -0.0127174 -0.00980769
internal_weight=43824 11821 4359 1221 844 3138 32003 451 393 360 247 10040 3575 315 1784 1145 289 740 594 261 159 7462 176 52 191 6465 1021 191 21963 333 377 49 103 137 113 2981 68 7286 3491 373 3118 1714 103 347 152 124 3774 1115 512 274 953 82 86 492 188 606 388 289 112 92 69 130
internal_count=43824 11821 4359 1221 844 3138 32003 451 393 360 247 10040 3575 315 1784 1145 289 740 594 261 159 7462 176 52 191 6465 1021 191 21963 333 377 49 103 137 113 2981 68 7286 3491 373 3118 1714 103 347 152 124 3774 1115 512 274 953 82 86 492 188 606 388 289 112 92 69 130
is_linear=0
shrinkage=0.05


Tree=7
num_leaves=63
num_cat=0
split_feature=6 9 0 10 10 0 10 9 2 3 5 3 5 3 9 10 0 1 2 5 3 5 3 10 4 2 1 2 1 10 1 10 0 9 3 10 3 1 10 10 0 1 2 6 2 3 3 2 2 9 5 4 1 3 3 2 10 3 9 6 4 6
split_gain=42.8806 89.2643 22.46 29.2541 12.5864 15.4418 18.4066 9.73662 8.12717 7.84372 7.78721 7.55612 7.30108 7.23918 6.96285 15.7593 8.44401 10.2453 6.93998 8.0999 6.41667 6.18714 5.841 5.31578 5.01473 4.72135 4.68525 4.42657 4.89373 4.60952 3.62992 3.79663 3.49432 3.27662 3.24864 3.12809 4.32484 3.22387 4.38928 2.96704 7.1262 7.21586 2.85035 2.82577 2.80057 3.34641 2.67644 2.65163 4.34942 4.17343 3.9258 2.53622 2.52525 2.61667 5.1511 2.49952 2.43405 5.00174 2.2846 2.25735 2.18186 2.17406
threshold=1.0963058150442027 295.03691793341397 -0.25881904510252113 32.648827469867207 15.295130397962488 -0.5 31.461027560026746 299.39643763491989 -0.091260668982868151 -0.96234030595689413 1032.862487792969 0.029024409397335523 469.92448425292974 -0.99465740988130902 295.37548094096945 37.330026916835621 1.0000000180025095e-35 -0.12940952255126037 -0.99763297024448894 955.43359375000011 -0.86974577485258975 574.70190429687511 -0.039769286347669845 25.959073481352434 1.5000000000000002 0.69056404122701587 0.1294095225512602 -0.16799356919963607 -0.12940952255126037 40.763110326684036 0.98296291314453421 30.30051567243493 -1.0000000180025095e-35 294.90417421039791 -0.54940789553007929 17.665115916210677 -0.99938741687870725 0.91597561503675351 29.191918787748918 31.461027560026746 -0.25881904510252113 0.60355339059327384 -0.15101209918632377 1.8814578568307982 -0.99467753128998015 -0.022575793296316496 -0.94137724084408114 -0.69057362043749781 -0.76141707087277943 294.126795236688 401.42602539062506 1.5000000000000002 -0.12940952255126037 -0.93543596745397617 -0.79382744783423187 -0.25205528343633254 11.650670466215715 1.0000000180025095e-35 295.3382343171773 1.59386040938528 4.5000000000000009 1.3962638292814558
decision_type=2 2 2 2 2 2 2 2 2 2 2 2 2 2 2 2 2 2 2 2 2 2 2 2 2 2 2 2 2 2 2 2 2 2 2 2 2 2 2 2 2 2 2 2 2 2 2 2 2 2 2 2 2 2 2 2 2 2 2 2 2 2
left_child=8 2 3 11 7 6 25 9 14 10 -3 12 20 -14 15 16 17 -1 19 -11 -2 46 23 -19 43 52 33 28 -23 -30 -4 -32 47 -26 39 36 -7 -37 -39 40 41 -10 -12 -15 45 -38 -5 48 49 -25 55 -24 -6 58 59 -49 -21 -58 -54 -55 -51 -8
right_child=1 4 30 21 5 35 61 -9 34 18 42 -13 13 24 -16 -17 -18 22 -20 56 -22 27 51 32 26 -27 -28 -29 29 -31 31 -33 -34 -35 -36 37 44 38 -40 -41 -42 -43 -44 -45 -46 -47 -48 50 -50 60 -52 -53 53 54 -56 -57 57 -59 -60 -61 -62 -63
leaf_value=-0.0018460009126362879 -0.18983653038825199 -0.040340102829471237 -0.012112286938404389 -0.081324208874309037 -0.089615080910653899 -0.096571614273077769 0.010241040454713034 0.0039419638704367623 -0.02470607751198195 -0.077467729135278246 -0.15094006054428807 -0.08939929209483595 -0.12423457617433893 -0.083502471549301349 0.10193197079876067 0.014225158179357829 0.079984376552149281 -0.22231372795962737 -0.035395984014425869 -0.16494997065318717 -0.11884448894350606 -0.046126510299441682 -0.21788313006040913 -0.094046548332693367 -0.13768657708757789 -0.19770984521877774 -0.23543545478992378 -0.021424004732669925 -0.13367227096286932 -0.061443939672496131 -0.15533586145610115 -0.043243359159437465 -0.048722619194377037 -0.11600405241358783 0.27780969879184542 0.046601667056813095 -0.070182411964835698 -0.11310121205322798 0.0021336219408751357 0.035343942328385218 0.048188445965385122 -0.1185029014717659 -0.071009393330950119 -0.18263504156720034 -0.002189472333503268 0.052598843811312329 -0.043130325712106329 0.013837374263464 -0.15464494185226466 -0.05967033361557126 -0.18869923947173184 -0.095974693194628063 -0.20223542632727717 -0.11149501464936828 -0.053434587026843144 -0.126519057612868 -0.089988114929237473 -0.13255482586599684 -0.0084614045991623608 -0.12443107346869993 -0.14841889650930726 -0.085600550414993315
leaf_weight=303 24 51 311 48 99 21 448 818 108 67 26 59 21 39 5454 5969 270 34 1150 30 88 58 78 32 60 41 195 42 64 20 77 78 72 28 15041 6548 32 63 144 2630 284 62 23 34 1357 36 313 59 30 59 30 252 23 31 48 24 27 25 38 25 34 269
leaf_count=303 24 51 311 48 99 21 448 818 108 67 26 59 21 39 5454 5969 270 34 1150 30 88 58 78 32 60 41 195 42 64 20 77 78 72 28 15041 6548 32 63 144 2630 284 62 23 34 1357 36 313 59 30 59 30 252 23 31 48 24 27 25 38 25 34 269
internal_value=0.000288883 -0.00211959 -0.0133435 -0.0172621 -0.000590035 0.000223084 -0.00557241 -0.00397271 0.00130454 -0.00650643 -0.02 -0.0254197 -0.0274591 -0.0307891 0.000334646 -0.000681065 -0.0057224 -0.00782771 -0.00546767 -0.0156208 -0.01625 -0.00905963 -0.0111364 -0.0154144 -0.0324719 -0.0158607 -0.0354859 -0.0165217 -0.0207394 -0.0284524 -0.00415236 -0.0104032 -0.0135294 -0.0259091 0.00198414 0.000945312 -0.00116528 0.00139711 -0.00474638 0.000505837 -0.00322687 -0.0113235 -0.0342347 -0.0207877 -0.000833333 -0.0107353 -0.00525623 -0.0161567 -0.0204032 -0.0163 -0.0103319 -0.00628788 -0.0134091 -0.017197 -0.0220192 -0.00472892 -0.0261585 -0.0196154 -0.00897541 -0.0323214 -0.0109409 -0.00119596
internal_weight=43824 12999 1559 1093 11440 9223 1022 2217 30825 1399 100 548 489 377 12700 7246 1277 1007 1299 149 112 545 704 374 356 305 283 184 142 84 466 155 340 88 18125 8201 1446 6755 207 3084 454 170 49 73 1425 68 361 268 155 125 113 330 264 165 104 83 82 52 61 56 93 717
internal_count=43824 12999 1559 1093 11440 9223 1022 2217 30825 1399 100 548 489 377 12700 7246 1277 1007 1299 149 112 545 704 374 356 305 283 184 142 84 466 155 340 88 18125 8201 1446 6755 207 3084 454 170 49 73 1425 68 361 268 155 125 113 330 264 165 104 83 82 52 61 56 93 717
is_linear=0
shrinkage=0.05


Tree=8
num_leaves=63
num_cat=0
split_feature=7 10 0 1 8 10 10 9 1 2 10 10 9 3 2 8 3 2 10 10 9 10 4 9 4 0 3 2 8 10 10 10 9 10 4 0 10 3 9 10 7 3 2 8 7 8 9 10 1 2 3 7 9 9 2 8 8 3 2 7 3 3
split_gain=45.3274 26.0908 84.7795 38.2279 26.7202 9.48131 8.5471 8.21133 8.20698 7.00451 6.89728 6.76174 6.35785 5.75014 7.83138 4.99898 4.793 5.92005 5.62946 4.70488 5.25377 5.82215 4.44853 4.42162 4.612 4.01864 4.94318 3.56876 3.51117 3.45739 3.32988 3.30901 3.28355 3.20131 4.26098 3.18265 3.1755 2.66143 3.26185 2.56358 2.39641 4.60341 7.04989 3.31044 2.58986 2.25594 5.79572 3.04391 2.18445 2.48227 2.41041 2.11765 2.01623 1.986 1.98371 2.75981 1.9358 1.82195 1.80987 2.1764 2.55513 6.26502
threshold=1.018273267244038 37.038147511689566 -0.25881904510252113 -0.12940952255126037 2.2298656407050399 14.915781104046363 28.735517460366957 294.90417421039791 0.98296291314453421 -0.44504625642270151 30.30051567243493 26.981198435244355 299.39643763491989 -0.96234030595689413 -0.18492532721306487 2.3070196375541232 -0.93543596745397617 -0.77245553105869302 28.271008408587914 16.148193587427553 295.26430302670138 36.250871575396999 1.5000000000000002 296.7463051243833 1.5000000000000002 -0.25881904510252113 -0.022575793296316496 -0.99763297024448894 3.7580148208026931 33.12204020956289 25.959073481352434 12.12361876860909 294.98696293881073 23.716253570888355 3.5000000000000004 -0.91597561503675329 21.774006967959199 -0.92272482904738262 295.55769682231704 20.885836476865023 1.5115021946555693 -0.6391983530350368 -0.69057362043749781 1.643707267269036 1.302067212556538 2.1275923523995863 294.90417421039791 41.023370908654265 -0.37940952255126015 -0.8781231054254196 0.029024409397335523 1.5646558099043999 296.37097704435661 294.81716045178871 -0.62588817255938378 2.7268034831103729 2.5632926611266487 -0.29342786347392819 -0.94705910369513524 1.6423596492566561 -0.70289845916694649 -0.61236746317008228
decision_type=2 2 2 2 2 2 2 2 2 2 2 2 2 2 2 2 2 2 2 2 2 2 2 2 2 2 2 2 2 2 2 2 2 2 2 2 2 2 2 2 2 2 2 2 2 2 2 2 2 2 2 2 2 2 2 2 2 2 2 2 2 2
left_child=9 2 3 11 6 12 33 22 39 19 36 35 13 14 -4 -13 -9 -18 -19 23 21 25 54 24 -1 26 -21 28 51 -24 -28 -30 40 34 -5 -2 -10 38 -37 48 41 42 -8 -44 -43 -3 47 -47 49 50 56 -15 -34 -17 -6 -56 -7 58 -29 60 -60 -62
right_child=1 45 5 4 7 8 32 16 10 -11 -12 15 -14 27 -16 53 17 18 -20 20 -22 -23 29 -25 -26 -27 30 57 31 -31 -32 -33 52 -35 -36 37 -38 -39 -40 -41 -42 44 43 -45 -46 46 -48 -49 -50 -51 -52 -53 -54 -55 55 -57 -58 -59 59 -61 61 -63
leaf_value=-0.14800816403581862 -0.10525691545483729 0.034774194174729274 -0.14326259971686858 -0.22292082473031538 -0.1170583008957255 -0.0051238573358461034 -0.17920507543047842 -0.10554395268944992 -0.20096978820679628 0.15297957944154572 -0.011152695453963628 0.029517350451877356 0.00278981162372984 -0.12066734864011855 -0.054374354258317215 -0.085846980300266273 -0.00057497105256755845 -0.1306479377027282 -0.11935397407391407 -0.18294564351475837 0.085467528711218849 -0.011319876365999716 -0.21144605356004736 -0.028216934074446438 -0.080005937109792716 0.0028228803803965578 -0.22135908547639255 -0.047234204005531862 -0.15575770054085913 -0.1112823989807355 -0.13262437298976387 -0.056624547979751541 -0.047049942204280548 -0.12250386643626753 -0.1820316472134812 -0.12073923933542961 -0.11392797638082547 -0.024885389092168277 -0.084452058705628621 0.060187376529752326 -0.073302316853434996 -0.11042824024015617 -0.11926896748376606 -0.10364848851419316 -0.025459000461037141 -0.10871240104731338 0.0060326666116859769 -0.060524844571845954 0.010308099288187086 -0.010545470108616723 0.091828424065744818 0.040954310569954223 -0.080248123464024518 -0.061335046399515508 -0.0058747884552895853 -0.2158893811739282 -0.048192691439576212 0.0006149813726250697 -0.018061634354945958 -0.023787224696562762 -0.12139692535205433 -0.060645921265487929
leaf_weight=46 34 5213 26 36 20 49 33 72 23 20098 159 574 574 34 58 32 22 56 45 21 4112 2899 138 746 63 97 27 23 24 24 110 23 374 255 33 21 133 113 20 2911 93 65 37 81 101 41 375 75 1533 811 57 34 21 85 20 21 148 199 148 398 35 75
leaf_count=46 34 5213 26 36 20 49 33 72 23 20098 159 574 574 34 58 32 22 56 45 21 4112 2899 138 746 63 97 27 23 24 24 110 23 374 255 33 21 133 113 20 2911 93 65 37 81 101 41 375 75 1533 811 57 34 21 85 20 21 148 199 148 398 35 75
internal_value=0.000320829 -0.00184156 -0.00339334 -0.0115148 -0.016246 -0.000757525 -0.0122476 -0.0270455 0.000190591 0.00151662 -0.00765873 -0.00318828 -0.00410206 -0.00636722 -0.0189286 -0.000900868 -0.0195513 -0.0255488 -0.0306683 0.000277367 0.000690201 -0.000844959 -0.0335987 -0.00323099 -0.0126376 -0.00808824 -0.0130063 -0.00530463 -0.013587 -0.0379321 -0.0095438 -0.0240957 -0.00948758 -0.0191049 -0.0286594 -0.0115957 -0.0151282 -0.00853896 -0.0194512 0.000639408 -0.012622 -0.0146924 -0.0210099 -0.0152966 -0.00894578 0.000852034 -0.00238798 -0.0121552 -0.000502309 -0.00224178 -0.00655512 -0.00632353 -0.00623418 -0.0103205 -0.0220902 -0.0157927 -0.00917513 -0.00421982 -0.00545287 -0.00496951 -0.00854651 -0.0143182
internal_weight=43824 15605 9901 2426 1547 7475 1129 418 5824 28219 315 879 1651 1077 84 691 195 123 101 8121 7266 3154 223 855 109 255 158 993 115 162 137 47 805 324 69 188 156 154 41 5509 410 317 151 118 166 5704 491 116 2598 1065 254 68 395 117 61 41 197 878 679 656 258 110
internal_count=43824 15605 9901 2426 1547 7475 1129 418 5824 28219 315 879 1651 1077 84 691 195 123 101 8121 7266 3154 223 855 109 255 158 993 115 162 137 47 805 324 69 188 156 154 41 5509 410 317 151 118 166 5704 491 116 2598 1065 254 68 395 117 61 41 197 878 679 656 258 110
is_linear=0
shrinkage=0.05


Tree=9
num_leaves=63
num_cat=0
split_feature=7 10 0 1 8 10 10 1 3 10 10 2 10 9 3 2 10 9 10 4 9 9 4 0 10 9 8 2 10 9 3 1 0 3 9 7 9 3 3 7 10 2 1 0 10 8 9 3 10 7 2 1 9 3 8 9 8 7 3 2 9 7
split_gain=40.3226 23.4169 72.4473 34.234 22.3707 9.48742 8.58325 7.4517 7.40774 7.03635 6.52287 6.34803 6.27179 5.35568 6.84659 8.88 4.5228 4.8319 4.82513 4.21603 3.94051 3.93437 5.35433 3.82323 5.07525 3.71715 3.6552 3.52461 3.45513 3.2927 3.28174 2.90868 2.79331 2.85032 3.26185 2.69243 3.31367 3.3432 2.70643 2.59738 2.58771 2.49467 2.36175 3.07171 4.50042 3.23293 3.83675 2.2755 2.95111 2.75 2.26476 2.10992 2.01452 4.90849 2.01 1.92 1.91731 1.71831 1.71616 2.33077 2.10415 1.89605
threshold=0.96165202893708912 37.038147511689566 -0.25881904510252113 -0.12940952255126037 2.2298656407050399 31.461027560026746 14.915781104046363 0.98296291314453421 0.19969739736768838 28.735517460366957 26.981198435244355 -0.44504625642270151 30.30051567243493 299.72523034346733 -0.96234030595689413 -0.18492532721306487 16.148193587427553 295.32027316444811 46.10344911658246 1.5000000000000002 294.431851356908 296.68466873972051 1.5000000000000002 -0.25881904510252113 26.367984232695211 294.69601085462074 2.3070196375541232 -0.99630266176052629 21.774006967959199 294.47202924226468 -0.71502926860092908 0.37940952255126048 -0.91597561503675329 -0.92272482904738262 295.55769682231704 1.2778326074700612 295.24771245052949 -0.89404254237865755 -0.6905596507703472 1.4165154708059211 22.927849728128184 0.10837544681456425 0.1294095225512602 -1.0000000180025095e-35 43.083968701569937 1.9150100139557555 294.58892128392273 -0.022575793296316496 10.735856678174891 1.5440576683847533 -0.77245553105869302 -0.5 294.87163153397421 -0.85225707553516283 3.7580148208026931 294.81716045178871 1.6982204301241544 -0.19734122226112763 -0.29342786347392819 -0.94705910369513524 298.44675098619979 1.5778759605006172
decision_type=2 2 2 2 2 2 2 2 2 2 2 2 2 2 2 2 2 2 2 2 2 2 2 2 2 2 2 2 2 2 2 2 2 2 2 2 2 2 2 2 2 2 2 2 2 2 2 2 2 2 2 2 2 2 2 2 2 2 2 2 2 2
left_child=11 2 3 10 9 8 13 40 19 35 32 16 28 14 15 -4 21 18 23 30 -7 22 -1 24 -18 39 -12 47 -9 -21 -6 -26 -2 34 -34 38 37 55 -5 -11 41 51 -3 44 45 -44 -47 49 -49 -16 -31 -8 -52 -54 -17 -37 -39 -33 59 -29 61 -61
right_child=1 42 6 4 5 20 7 12 -10 25 26 -13 -14 -15 27 54 17 -19 -20 29 -22 -23 -24 -25 31 -27 -28 58 -30 50 -32 57 33 -35 -36 36 -38 56 -40 -41 -42 -43 43 -45 -46 46 -48 48 -50 -51 52 -53 53 -55 -56 -57 -58 -59 -60 60 -62 -63
leaf_value=-0.14760529207553563 -0.099994069682095413 0.11567392136661143 -0.13988809254011922 -0.16475082347729375 -0.12018024009842077 -0.1047989598848162 -0.034852017724419981 -0.19092129879645647 -0.003423180767103625 -0.15248196825880289 0.029846652857407938 0.15477745209301383 -0.0091700616636018143 0.0059506071797335311 -0.093935589071276041 -0.044322663650620951 -0.23036739267018891 0.085179576574340624 0.005996999660861463 -0.22093614455352784 -0.09715644010591927 -0.029271343867918527 -0.056679755866179043 0.017863807617234335 -0.05780383477995793 -0.055906167115735428 -0.070887129860623163 -0.048123807686275138 -0.10653638169910412 -0.0406968837721145 -0.14442743303507313 -0.21479872292944802 -0.11470227736865815 -0.023564004776698205 -0.080229455770347194 -0.20118393691641462 -0.06478380380651072 0.021108753951656629 -0.19780368956005592 -0.093906548400327527 0.081179453780329244 0.037363632969654906 -0.041898789775131749 0.12708389864192476 0.0020037059121584973 -0.10811593491273788 -0.054635255807205588 -0.14740656268079919 -0.022254460377093058 -0.0087379275922638625 -0.1933604412720194 -0.00023591745626605921 -0.17123357720100787 -0.12140623454216469 -0.052672656387504839 -0.14361464229481158 -0.16925548396649903 -0.14135507889707011 0.0050217969736501208 -0.064399368755064593 -0.013528079213839406 -0.034865442739376779
leaf_weight=39 34 2551 36 37 60 27 825 23 20 157 591 19622 160 472 22 49 32 3827 2587 61 84 721 56 167 181 556 117 25 134 25 22 22 21 114 20 30 72 20 50 107 2392 927 434 1150 1935 36 120 28 58 22 38 1605 42 39 29 20 103 105 224 139 345 257
leaf_count=39 34 2551 36 37 60 27 825 23 20 157 591 19622 160 472 22 49 32 3827 2587 61 84 721 56 167 181 556 117 25 134 25 22 22 21 114 20 30 72 20 50 107 2392 927 434 1150 1935 36 120 28 58 22 38 1605 42 39 29 20 103 105 224 139 345 257
internal_value=0.000358479 -0.00159657 -0.00306695 -0.010532 -0.0149841 -0.0248923 -0.000697375 0.000183811 -0.0294218 -0.0113889 -0.00273969 0.00153505 -0.00727918 -0.0038306 -0.00556321 -0.0172368 0.000322153 0.000737249 -0.000732062 -0.0314721 -0.0123649 -0.00319853 -0.0127632 -0.00519231 -0.00823529 -0.00890244 -0.000536723 -0.004375 -0.014379 -0.0353049 -0.0218902 -0.00626623 -0.0109921 -0.00814516 -0.0194512 -0.0175301 -0.0148469 -0.0185983 -0.0250862 -0.0137879 0.000595321 -0.000300119 0.000821555 1.02041e-05 -0.000965346 -0.00478814 -0.0109615 -0.0121154 -0.00738372 -0.0213636 -0.0311806 -0.00114198 -0.0340546 -0.0295988 -0.00775641 -0.0295 -0.0141667 -0.0120669 -0.00335859 -0.00448433 -0.00397773 -0.00646465
internal_weight=43824 16465 10239 2467 1570 418 7772 6066 307 1152 897 27359 317 1706 1234 114 7737 6921 3094 287 111 816 95 507 340 820 708 1120 157 205 82 308 189 155 41 332 245 173 87 264 5749 3357 6226 3675 2525 590 156 130 86 44 144 2430 119 81 78 50 123 127 990 766 741 396
internal_count=43824 16465 10239 2467 1570 418 7772 6066 307 1152 897 27359 317 1706 1234 114 7737 6921 3094 287 111 816 95 507 340 820 708 1120 157 205 82 308 189 155 41 332 245 173 87 264 5749 3357 6226 3675 2525 590 156 130 86 44 144 2430 119 81 78 50 123 127 990 766 741 396
is_linear=0
shrinkage=0.05


Tree=10
num_leaves=63
num_cat=0
split_feature=7 10 9 5 0 0 10 10 10 2 1 2 2 4 9 5 1 2 5 1 2 10 9 10 9 2 10 2 0 1 8 5 1 5 2 9 4 7 10 5 8 0 2 2 2 0 10 1 0 10 5 2 2 2 2 10 2 2 10 8 7 0
split_gain=36.4157 20.7597 56.9234 29.3582 12.851 11.3977 15.1687 8.9745 8.57841 6.02699 5.35832 5.48707 8.14186 5.6305 5.03531 6.62669 4.91411 5.97063 4.72429 4.32067 4.21621 4.14018 5.02513 4.40093 4.45068 4.55787 4.12669 5.32002 4.05289 4.70109 3.80862 3.67309 2.83583 3.66992 4.5446 2.81851 3.40651 2.61368 2.38785 2.34843 3.48277 2.28938 2.16071 6.47567 2.03514 1.99283 1.92683 2.04541 2.61671 2.62437 1.86024 2.23776 2.71608 2.11567 2.96267 3.17979 2.19795 2.49799 1.83323 1.8091 1.76169 1.7282
threshold=0.96165202893708912 40.763110326684036 294.9201508371454 450.54196166992193 1.0000000180025095e-35 -0.5 29.420566351517383 14.915781104046363 31.461027560026746 -0.44504625642270151 -0.37940952255126015 -0.59869031648930193 -0.98523971305672675 2.5000000000000004 299.39643763491989 1032.862487792969 -0.37940952255126015 0.66527693225344786 634.65606689453136 -0.12940952255126037 -0.99866806308218525 17.831577860790752 295.32027316444811 30.518044927845832 294.56922413073096 -0.77245553105869302 25.370735251385231 -0.33425342068356556 -0.25881904510252113 0.37940952255126048 1.8579368732581634 1311.2364501953127 -0.60355339059327384 586.96731567382824 -0.15101209918632377 296.7463051243833 1.5000000000000002 1.3766570964612461 35.520377034726359 210.19875335693362 1.3217597119480693 -0.60355339059327362 -0.61237985104942771 -0.50556189049999822 0.73865729060996177 0.60355339059327384 20.885836476865023 0.91597561503675351 -1.0000000180025095e-35 33.12204020956289 300.19274902343756 0.49812943072827093 1.0000000180025095e-35 -0.92923668111203805 -0.9905448150984083 32.420039011084519 -0.76141707087277943 -0.69057362043749781 57.301976328310765 3.5214497754293572 1.4923253089503239 -0.25881904510252113
decision_type=2 2 2 2 2 2 2 2 2 2 2 2 2 2 2 2 2 2 2 2 2 2 2 2 2 2 2 2 2 2 2 2 2 2 2 2 2 2 2 2 2 2 2 2 2 2 2 2 2 2 2 2 2 2 2 2 2 2 2 2 2 2
left_child=9 2 3 28 8 6 16 14 10 21 -5 12 -12 18 15 44 -4 26 -13 -8 -17 35 23 24 25 -23 27 -18 29 -2 -14 45 -10 37 -35 36 -1 41 -21 -31 -41 -34 -28 -44 -7 -22 -9 -48 49 -49 -42 52 53 54 -52 -56 -55 -58 61 -3 -29 -25
right_child=1 59 5 4 -6 7 19 46 32 -11 11 13 30 -15 -16 20 17 -19 -20 38 31 22 -24 58 -26 -27 42 60 -30 39 -32 -33 33 34 -36 -37 -38 -39 -40 40 50 -43 43 -45 -46 -47 47 48 -50 -51 51 -53 -54 56 55 -57 57 -59 -60 -61 -62 -63
leaf_value=-0.15378997723240398 0.0047505079850006428 0.038206071385656931 -0.0521943586011831 -0.063370043712659488 -0.057446850716305502 -0.020020729113978262 0.037920789979879382 -0.0059913187557052135 -0.0025620975079709814 0.14703857948836313 -0.17379750975950148 -0.036215410485524936 -0.18121085928940939 -0.21017734587363035 0.0010804312745237223 -0.14116438118399513 -0.12828730384344975 -0.17479454691521618 -0.19981143620675049 -0.072973840714918248 -0.09629793754613851 -0.22135599311409981 0.10709218307895695 -0.10370265211475747 -0.051862309578883228 -0.07924693567227277 0.0026828950356583559 -0.21085461508017733 -0.0052127260750632386 0.034337953826700254 -0.086003970982367339 -0.1179417781372349 -0.11015547761862186 -0.097151935032514597 -0.035747448678445336 -0.020869455237468509 -0.054136021444885975 -0.051097288634941986 -0.014242603314273003 -0.13380555439875669 -0.043259622300173925 -0.12390053927365954 -0.11641019115944073 -0.069094712083082335 -0.12044508894218926 -0.043077159881558795 0.061557428975748486 -0.085023678413751635 0.011588417452218362 0.00078162878438214109 -0.073163058770390921 0.0084273856462252304 -0.17011052185409117 0.0069341928145927991 -0.093975197698489069 -0.10039946010147512 -0.1290146418732038 -0.11620655344663036 0.011308895293248696 -0.22665654732563639 -0.050839830819487411 0.092544032019248157
leaf_weight=61 164 5120 113 61 134 654 507 2670 36 19622 49 27 20 120 601 38 29 33 39 309 45 26 3569 488 85 21 42 21 342 42 125 25 28 77 24 924 94 113 304 30 65 26 29 97 27 309 3159 77 311 70 26 26 33 46 21 20 25 89 2262 29 38 207
leaf_count=61 164 5120 113 61 134 654 507 2670 36 19622 49 27 20 120 601 38 29 33 39 309 45 26 3569 488 85 21 42 21 342 42 125 25 28 77 24 924 94 113 304 30 65 26 29 97 27 309 3159 77 311 70 26 26 33 46 21 20 25 89 2262 29 38 207
internal_value=0.000385862 -0.00147206 -0.00266967 -0.010802 -0.0173521 -0.00112326 -0.0050887 -0.000367518 -0.0199161 0.00150398 -0.0243707 -0.0265789 -0.0206959 -0.0327151 -0.00359182 -0.00560565 -0.0134204 -0.0168772 -0.0209848 -0.00209821 -0.0105695 0.000322153 0.000787774 -0.000688734 -0.00962121 -0.0219681 -0.0142969 -0.0230682 -0.00460441 -0.00712521 -0.0147414 -0.00897757 -0.0134539 -0.0152239 -0.0227475 -0.00255097 -0.00879032 -0.0106737 -0.00492251 -0.00991135 -0.0111483 -0.0197222 -0.00970238 -0.0129762 -0.00256608 -0.00766949 0.000503817 0.00125588 -0.00186681 -0.00736395 -0.00975071 -0.011486 -0.0128846 -0.0109361 -0.0183955 -0.0267683 -0.0078125 -0.0115351 -0.00028999 0.00115993 -0.0144492 -0.00253597
internal_weight=43824 16465 11316 1808 879 9508 1522 7986 745 27359 441 380 194 186 1699 1098 402 289 66 1120 417 7737 6658 3089 132 47 256 88 929 587 145 379 304 268 101 1079 155 167 613 423 381 54 168 126 681 354 6287 3617 458 147 351 286 260 227 67 41 160 114 2957 5149 59 695
internal_count=43824 16465 11316 1808 879 9508 1522 7986 745 27359 441 380 194 186 1699 1098 402 289 66 1120 417 7737 6658 3089 132 47 256 88 929 587 145 379 304 268 101 1079 155 167 613 423 381 54 168 126 681 354 6287 3617 458 147 351 286 260 227 67 41 160 114 2957 5149 59 695
is_linear=0
shrinkage=0.05


Tree=11
num_leaves=63
num_cat=0
split_feature=7 9 6 0 1 6 3 9 8 0 6 9 8 0 9 5 3 3 8 9 6 0 3 9 5 1 8 8 4 7 5 3 7 7 3 3 6 9 3 0 3 7 0 4 3 3 3 3 3 3 4 0 3 6 9 3 3 8 0 1 9 3
split_gain=33.759 19.0705 50.8102 13.0242 14.5839 8.86784 6.36429 7.27467 5.58642 4.84478 4.54545 4.06592 3.94894 3.5356 3.30082 5.18865 3.19561 7.18907 4.2389 3.03408 3.72558 2.93035 2.98227 4.39599 3.01226 2.86565 3.45054 2.77502 2.72292 2.55324 2.82656 2.82856 3.16006 3.01657 2.54884 9.63162 2.53226 2.51534 2.40506 2.2287 2.16084 2.15309 2.10764 2.04167 1.92119 1.88122 3.35186 1.87178 2.65646 1.85943 1.81372 1.71027 1.67719 1.99435 1.65502 2.57363 1.6186 1.50373 1.4968 2.46491 2.01361 3.21621
threshold=0.96165202893708912 295.39566865619867 1.3713968377364314 -0.25881904510252113 -0.12940952255126037 0.75635395250822379 0.19969739736768838 294.431851356908 2.3280757114037942 -0.5 1.6872995637592521 294.71231291118431 3.221649835417145 0.12940952255126045 299.4374853355007 1065.7813110351565 0.029024409397335523 -0.3744658827978154 4.4987961324271435 295.32027316444811 0.4461946346885281 -0.5 0.60383265664488517 294.51337866532191 222.53630828857425 0.98296291314453421 2.5367321599732775 2.8563684221357533 1.5000000000000002 1.1215949962013649 386.15551757812506 -0.022575793296316496 1.4165154708059211 1.28572359988564 -0.97111920233974802 -0.98212955754013376 1.9148946179841697 294.87163153397421 -0.056951011027366626 -0.5 -0.71502926860092908 1.614199411492599 -0.60355339059327362 2.5000000000000004 -0.31800055644052067 -0.85225707553516283 -0.6391983530350368 -0.6391983530350368 -0.40613878790836594 -0.99273797715557011 1.0000000180025095e-35 -0.37940952255126059 -0.61236746317008228 3.4412969970703124 296.80925567626963 0.18281312110578132 -0.3744658827978154 1.2078783051217918 -0.25881904510252113 0.1294095225512602 293.43009339985105 0.47369649395226454
decision_type=2 2 2 2 2 2 2 2 2 2 2 2 2 2 2 2 2 2 2 2 2 2 2 2 2 2 2 2 2 2 2 2 2 2 2 2 2 2 2 2 2 2 2 2 2 2 2 2 2 2 2 2 2 2 2 2 2 2 2 2 2 2
left_child=19 2 5 4 -4 -2 7 10 -3 27 42 13 28 29 15 -11 17 34 38 20 58 22 23 24 -22 -5 -27 -10 41 39 50 32 33 -32 35 -17 -21 47 -19 -7 -36 -9 -6 -12 57 -39 -47 51 -49 -38 -31 -30 53 -42 55 -51 -34 -25 59 -1 -61 -62
right_child=1 8 3 25 6 11 -8 12 9 14 43 -13 -14 -15 -16 16 -18 18 -20 36 21 -23 -24 44 -26 26 -28 -29 37 30 31 -33 56 -35 40 -37 49 45 -40 -41 52 -43 -44 -45 -46 46 -48 48 -50 54 -52 -53 -54 -55 -56 -57 -58 -59 -60 60 61 -63
leaf_value=0.16009570181546262 0.029226904125881838 0.037037007209464644 -0.060972757417683043 -0.040011967063026649 -0.14555676212886323 -0.14212451792049649 0.00070728989338477051 -0.030247126829579501 -0.071390544849908824 -0.0073033930490482915 -0.15046557010095737 -0.038431933852074635 -0.22035400607182584 0.04983312879001571 0.021641157794923448 -0.016653439807478913 0.065685309242045839 -0.034828297694355408 -0.044576857754231765 0.13560657173331794 -0.15553423678166517 0.012660219566994875 0.23641019534992239 -0.13013649366986405 -0.22399698374840038 -0.081492659341817764 -0.15508313880168612 -0.1236983464874454 -0.19657980420729892 -0.020092948216918368 -0.026683139351906318 0.10686650899070321 -0.045376529252521579 -0.14933697458511019 -0.0014634871367648059 -0.13819725746096598 -0.077575298658812075 -0.14684999380127356 -0.13354126832057647 -0.13467514323672561 -0.1281271080433643 -0.09868831861707561 -0.19101059398853032 -0.19288692438281729 -0.019749294395947758 -0.15918896621218637 -0.012807435942419152 -0.055649929007564915 -0.067424114693990345 -0.055678795983956503 -0.057139751680375488 -0.10702315185447149 -0.0052339878355176514 -0.041057131457979852 0.0094654951160187129 -0.0017550000627024132 -0.095885033966741987 -0.14451507977206018 0.24452292963895675 0.24900173295305308 0.068288830124426464 -0.083510444876328666
leaf_weight=2304 2678 4548 259 299 29 28 39 64 110 3109 42 1389 36 120 1569 120 121 77 23 16423 59 347 94 51 24 76 32 25 72 41 40 47 136 89 355 31 78 84 24 22 32 59 27 56 128 41 21 21 37 24 292 20 63 29 1119 58 33 20 2594 939 1167 1930
leaf_count=2304 2678 4548 259 299 29 28 39 64 110 3109 42 1389 36 120 1569 120 121 77 23 16423 59 347 94 51 24 76 32 25 72 41 40 47 136 89 355 31 78 84 24 22 32 59 27 56 128 41 21 21 37 24 292 20 63 29 1119 58 33 20 2594 939 1167 1930
internal_value=0.000401835 -0.00138703 -0.00356839 -0.0123021 -0.0156367 -0.00123347 -0.0196451 -0.020899 -5.95935e-05 -0.00110408 -0.0302922 -0.00355722 -0.0177198 -0.00628538 -0.000876553 -0.00164157 -0.00504286 -0.00625332 -0.0172581 0.0014784 0.000765507 -0.00268672 -0.00574468 -0.0083156 -0.0179819 -0.00487101 -0.0118519 -0.010463 -0.0163544 -0.00759615 -0.00679204 -0.00996377 -0.0117617 -0.017655 -0.0040873 -0.00975166 0.0018673 -0.0189527 -0.0128465 -0.0185 -0.00230167 -0.0101016 -0.0189286 -0.0367857 -0.00428392 -0.0142808 -0.0208871 -0.0235 -0.0164655 -0.000275606 -0.00350601 -0.0279348 -0.00798387 -0.0138934 0.000210242 -0.00664634 -0.00726331 -0.0108803 0.00104488 0.000630915 -0.000113974 -0.000728931
internal_weight=43824 16465 6229 1314 907 4915 648 609 10236 5688 154 2237 455 848 5553 3984 875 754 124 27359 9657 723 376 282 83 407 108 135 419 728 678 345 298 129 630 151 17702 296 101 50 479 123 56 98 199 146 62 150 58 1279 333 92 124 61 1201 82 169 71 8934 6340 4036 3097
internal_count=43824 16465 6229 1314 907 4915 648 609 10236 5688 154 2237 455 848 5553 3984 875 754 124 27359 9657 723 376 282 83 407 108 135 419 728 678 345 298 129 630 151 17702 296 101 50 479 123 56 98 199 146 62 150 58 1279 333 92 124 61 1201 82 169 71 8934 6340 4036 3097
is_linear=0
shrinkage=0.05


Tree=12
num_leaves=63
num_cat=0
split_feature=7 9 8 0 1 5 3 3 2 9 5 2 8 0 2 3 8 9 9 0 1 5 8 3 3 2 0 3 4 9 4 5 5 7 9 5 0 1 7 7 2 2 4 3 9 5 3 8 2 1 2 2 8 8 8 9 3 2 7 3 3 3
split_gain=30.3144 15.1394 37.8943 10.4435 12.7237 9.66974 6.31355 7.30869 6.14661 5.64752 5.49733 5.67654 5.34384 5.93609 5.58976 4.88571 4.47516 3.866 3.19738 2.61011 3.53627 4.32021 3.36244 2.60942 2.80109 5.03073 2.56775 3.61158 3.06946 2.5 2.34136 4.16648 2.26569 2.97933 3.22623 2.22598 2.18748 2.79397 2.918 2.11072 5.50617 3.10116 5.7622 2.10262 2.50583 2.00631 2.0562 2.4345 1.97184 1.92788 2.90459 2.55096 2.45906 1.86333 1.8211 1.71815 1.81392 1.9458 1.77675 1.65304 1.6497 1.59539
threshold=0.96165202893708912 295.39566865619867 2.2120559037437482 1.0000000180025095e-35 -0.12940952255126037 397.15057373046881 -0.99052477729077237 0.19969739736768838 0.22700754078277605 294.83542716578444 641.69976806640636 -0.98523971305672675 2.9606925053025352 1.0000000180025095e-35 -0.70291267844185523 0.029024409397335523 4.4987961324271435 294.9201508371454 294.85369347823297 -0.25881904510252113 0.1294095225512602 102.99077224731447 1.5200580238591324 -0.96687281075841669 -0.85225707553516283 -0.59869031648930193 0.12940952255126045 -0.94703994556331683 5.5000000000000009 298.13291640432266 1.0000000180025095e-35 181.68135070800784 197.24253845214847 1.1679688945569493 294.53062887091397 242.28745269775393 0.12940952255126045 0.1294095225512602 1.0577866724917768 1.7488089631733146 -0.99866806308218525 -0.73866753694953124 2.5000000000000004 -0.58481178939031186 296.4329150230007 904.60440063476574 -0.8611288361322974 4.2509198881370214 -0.91597725483594616 -0.12940952255126037 0.51297097409535064 0.73865729060996177 0.66250877337384206 0.920691482949895 2.3904619246809866 294.53062887091397 1.0000000180025095e-35 -0.92923668111203805 1.3384409693667767 -0.99983123799342477 -0.97507822412530132 -0.98212955754013376
decision_type=2 2 2 2 2 2 2 2 2 2 2 2 2 2 2 2 2 2 2 2 2 2 2 2 2 2 2 2 2 2 2 2 2 2 2 2 2 2 2 2 2 2 2 2 2 2 2 2 2 2 2 2 2 2 2 2 2 2 2 2 2 2
left_child=8 2 5 4 -4 32 -6 10 18 26 11 -8 -3 -14 15 16 39 48 19 20 -1 -22 30 -13 -25 -26 27 60 55 45 31 53 -2 34 36 -32 37 -34 -39 40 -15 -41 -43 44 49 -16 47 61 -12 -10 -51 -52 -53 -23 -27 56 57 -29 -59 -35 -7 -47
right_child=1 12 3 -5 6 9 7 -9 43 -11 17 23 13 14 29 -17 -18 -19 -20 -21 21 22 -24 24 25 54 -28 28 -30 -31 35 -33 33 59 -36 -37 -38 38 -40 41 -42 42 -44 -45 -46 46 -48 -49 -50 50 51 52 -54 -55 -56 -57 -58 58 -60 -61 -62 -63
leaf_value=0.077352308742860046 0.078523065128981301 0.019140393695602234 -0.063314183927257822 -0.052534698786040925 -0.098314600910279673 -0.19177638504459724 -0.091554969969246544 0.005079580754262695 0.11065552739281244 -0.044449616815383279 -0.14429697834801411 -0.15635858975026665 -0.096924961533115916 -0.12747658343069776 0.0059631471174387985 0.057970055132566693 -0.042326040024859263 -0.16179254663586637 0.047123562494727052 0.13524796284390173 -0.018650482269521745 -0.28562688081863585 0.048106678666752292 -0.10443634896851101 -0.094811625998333315 -0.062786228246488329 -0.0041762003034145432 -0.13055916073085211 -0.10574755494639779 0.014157972630418911 -0.12423448154002222 0.011825511304959803 0.20957725372911723 -0.17196055118486844 -0.023890349578759615 -0.3137058330355913 0.24958491197317439 -0.17673112801818294 -0.11124713621203966 -0.012677375004423619 -0.039360805588290443 -0.12091081593135587 0.13210119392873468 0.24796519622248764 0.024483878254515451 0.0023157553810882552 -0.0019777642699855338 -0.091951897126085383 -0.18153214882344129 -0.080931498903668408 0.12350806354707056 -0.022900314550217859 -0.16316801694553354 -0.33025457676542458 -0.21185622748440758 -0.044092265410489676 0.024864502608715533 -0.18264922979429118 -0.10734941517475916 0.0048772171250517481 -0.10258888834120466 -0.071404242164214995
leaf_weight=965 1087 6240 214 195 52 42 25 33 75 892 29 21 38 37 363 239 38 37 9117 1142 1132 29 173 71 86 22 103 26 93 1938 513 35 30 33 436 54 34 41 102 435 440 20 21 13106 784 78 191 39 97 20 69 50 45 50 30 231 40 44 101 1956 26 119
leaf_count=965 1087 6240 214 195 52 42 25 33 75 892 29 21 38 37 363 239 38 37 9117 1142 1132 29 173 71 86 22 103 26 93 1938 513 35 30 33 436 54 34 41 102 435 440 20 21 13106 784 78 191 39 97 20 69 50 45 50 30 231 40 44 101 1956 26 119
internal_value=0.000423512 -0.00127164 -0.0032152 -0.0126316 -0.0154219 -0.00160006 -0.0197664 -0.0216685 0.00144367 -0.00485294 -0.0234569 -0.0188725 -8.89018e-05 -0.00151652 -0.00132769 -0.00412602 -0.00567356 -0.0306288 0.000668055 -0.000492915 -0.00127838 -0.00248489 -0.00516979 -0.016413 -0.0147249 -0.0188768 -0.00819405 -0.0094403 -0.00806075 -6.59823e-05 -0.0067511 -0.0132895 -0.000202339 -0.000995441 -0.00395412 -0.00543651 -0.0090942 -0.0113728 -0.0142832 -0.00500262 -0.00735325 -0.00264706 -0.0157927 0.00216782 7.19086e-06 -0.00243671 -0.00475995 -0.00788136 -0.0348016 -0.00425676 -0.00701087 -0.00481707 -0.0101316 -0.0196519 -0.0311538 -0.00632353 -0.00958531 -0.0118275 -0.00956897 -3.89642e-05 -0.0202941 -0.00562183
internal_weight=43824 16465 6229 912 717 5317 503 451 27359 1598 418 255 10236 3996 3958 1230 991 163 13210 4093 2951 1986 854 230 209 138 706 603 535 2728 681 114 3719 2632 643 567 207 173 143 953 477 476 41 14149 1043 790 427 236 126 259 184 164 95 79 52 442 211 171 145 1989 68 197
internal_count=43824 16465 6229 912 717 5317 503 451 27359 1598 418 255 10236 3996 3958 1230 991 163 13210 4093 2951 1986 854 230 209 138 706 603 535 2728 681 114 3719 2632 643 567 207 173 143 953 477 476 41 14149 1043 790 427 236 126 259 184 164 95 79 52 442 211 171 145 1989 68 197
is_linear=0
shrinkage=0.05


Tree=13
num_leaves=63
num_cat=0
split_feature=7 10 0 1 10 8 10 2 8 10 9 10 9 3 2 1 10 9 10 3 9 9 8 7 7 10 7 3 8 2 2 9 1 9 5 1 0 5 3 10 9 2 5 2 5 7 10 2 3 5 0 9 5 5 3 10 2 7 2 2 8 1
split_gain=26.5709 17.2712 50.4312 25.1491 17.5503 7.19343 7.10947 6.3622 6.077 5.08237 4.39871 7.63038 4.2423 5.75967 9.64037 4.1471 4.46579 3.93818 3.92562 3.49014 3.4887 3.10191 3.03584 2.77884 2.75633 2.7221 2.57035 2.449 2.40935 2.4056 5.52273 2.29368 2.2773 2.25372 2.22979 2.2192 2.45799 5.39654 3.83917 2.23003 2.06766 2.36328 2.72437 2.03905 4.03478 2.44208 2.01843 2.05707 1.88877 1.86823 1.85514 1.91689 4.18417 2.11168 1.8467 1.83382 1.80607 1.8024 1.76329 1.71728 2.11279 1.67989
threshold=0.96165202893708912 36.250871575396999 -0.25881904510252113 -0.37940952255126015 28.04712722612464 2.7268034831103729 14.915781104046363 -0.62588817255938378 2.2298656407050399 17.831577860790752 294.85369347823297 26.367984232695211 299.72523034346733 -0.96687281075841669 -0.18492532721306487 0.98296291314453421 21.598733487336531 294.320714271947 21.965307691822883 0.16587474750015932 294.6063359150134 294.67755650570524 0.93067991746819856 1.3384409693667767 1.7267861456620071 26.981198435244355 1.293593454862896 -0.92272482904738262 2.5367321599732775 -0.33425342068356556 -0.21861968191509915 294.93737010755046 1.0000000180025095e-35 295.55769682231704 337.73649597167974 -0.12940952255126037 -1.0000000180025095e-35 616.18463134765636 -0.71502926860092908 41.59694198940111 296.84455094186887 -0.75015329512557205 598.49520874023449 -0.99866806308218525 963.37197875976574 1.441821646439402 22.927849728128184 0.10837544681456425 -0.58481178939031186 455.58560180664068 -0.25881904510252113 294.15912443462179 98.758636474609389 153.01017761230472 -0.39036009226888674 66.456304798955514 0.22700754078277605 0.27191517076994254 -0.048361574224334618 -0.93545489084327571 1.8135543007070389 -0.37940952255126015
decision_type=2 2 2 2 2 2 2 2 2 2 2 2 2 2 2 2 2 2 2 2 2 2 2 2 2 2 2 2 2 2 2 2 2 2 2 2 2 2 2 2 2 2 2 2 2 2 2 2 2 2 2 2 2 2 2 2 2 2 2 2 2 2
left_child=7 2 3 25 8 20 12 9 18 32 11 -11 13 14 -4 46 -17 -7 -5 21 23 -10 55 49 -19 27 54 33 -18 31 -31 -23 40 -2 -25 -3 37 39 -39 -37 41 42 -1 44 -15 -46 47 -8 -9 -6 51 52 57 -54 58 -13 -50 -24 -20 -36 -61 -45
right_child=1 35 6 4 5 17 15 48 19 10 -12 22 -14 43 -16 16 28 24 26 -21 -22 29 50 34 -26 -27 -28 -29 -30 30 -32 -33 -34 -35 59 36 -38 38 -40 -41 -42 -43 -44 61 45 -47 -48 -49 56 -51 -52 -53 53 -55 -56 -57 -58 -59 -60 60 -62 -63
leaf_value=-0.011402609195034795 -0.10583068789582087 0.14424493738974956 -0.12181917812704107 -0.17730021823249775 -0.11436989072534919 -0.087680390973684463 -0.011580218959965055 0.0066474525119450166 -0.21347147187318005 -0.18333143856595835 0.07034098730045639 -0.11886243916477246 0.003809098735753553 0.0010060589106207773 -0.046504029785405784 -0.16663504806372315 -0.046729870690645811 -0.10413144655189638 -0.17620619387847636 -0.024489788597117694 -0.062734274223731956 -0.12747139128263324 -0.21744642039140941 0.015893778046453099 -0.063602415573887613 0.014276345054886839 -0.094169187777724664 -0.019523750172665662 -0.09687041121763329 0.036626875290390583 -0.14717079329829236 -0.092121037161334796 -0.0025851865693417571 -0.081993873506608736 -0.045750406515669445 -0.036929439788400659 0.12433268608287096 -0.034283819693130282 -0.19917902251094446 0.0099892193616421248 -0.053028790584844734 -0.12232172689285581 -0.13401750072352528 -0.038493001835091037 -0.12336787222064892 -0.040502381850850824 0.07179864418619919 0.034878951235984536 0.10076276474680634 -0.15432981909511265 0.05264399830880602 -0.11305264401080084 -0.16820831487726429 -0.15482205697911211 -0.078128374576713094 0.073714344094474679 0.23556693641136325 0.028203016152073671 -0.18306498506959396 -0.19099776394825008 -0.10590523999891473 -0.010223952787953561
leaf_weight=58 21 2073 31 56 56 20 2430 1948 84 23 3599 241 472 51 78 22 257 21 22 22 753 20 37 34 34 511 184 114 27 24 64 23 322 20 51 614 1210 46 22 2509 423 20 21 465 25 28 2319 927 6138 23 172 224 25 39 23 903 13106 60 30 22 71 556
leaf_count=58 21 2073 31 56 56 20 2430 1948 84 23 3599 241 472 51 78 22 257 21 22 22 753 20 37 34 34 511 184 114 27 24 64 23 322 20 51 614 1210 46 22 2509 423 20 21 465 25 28 2319 927 6138 23 172 224 25 39 23 903 13106 60 30 22 71 556
internal_value=0.000461163 -0.00112587 -0.00242944 -0.00891989 -0.0122526 -0.00855991 -0.000485172 0.00141626 -0.0195109 2.83775e-06 0.000574394 -0.00150232 -0.00333236 -0.00487439 -0.0158486 0.000326814 -0.00534314 -0.0235 -0.0149603 -0.0255591 -0.00745049 -0.0275 -0.00111552 -0.0124805 -0.0165909 -0.000728228 -0.0123649 -0.00653226 -0.00366197 -0.0226908 -0.0179545 -0.0323837 -0.0036019 -0.0170122 -0.00901685 0.000885851 0.000250511 -0.000477123 -0.0144118 -0.000173711 -0.00564176 -0.0121465 -0.00825949 -0.00381111 -0.0104808 -0.0201415 0.000632488 -0.000151177 0.00182758 -0.0202848 -0.00414273 -0.00607143 -0.0102329 -0.0201562 -0.0201667 0.000358392 0.00197776 -0.00368557 -0.0253846 -0.0117361 -0.0157796 -0.00313173
internal_weight=43824 16465 9991 2303 1637 1085 7688 27359 552 6167 5323 1724 1706 1234 109 5982 306 75 315 237 1010 215 1701 257 55 666 259 155 284 131 88 43 844 41 178 6474 4401 3191 68 3123 522 99 79 1125 104 53 5676 3357 21192 79 557 385 161 64 75 1144 19244 97 52 144 93 1021
internal_count=43824 16465 9991 2303 1637 1085 7688 27359 552 6167 5323 1724 1706 1234 109 5982 306 75 315 237 1010 215 1701 257 55 666 259 155 284 131 88 43 844 41 178 6474 4401 3191 68 3123 522 99 79 1125 104 53 5676 3357 21192 79 557 385 161 64 75 1144 19244 97 52 144 93 1021
is_linear=0
shrinkage=0.05


Tree=14
num_leaves=63
num_cat=0
split_feature=7 10 0 1 10 8 10 8 2 10 4 10 9 10 9 3 2 3 3 7 2 2 1 10 9 10 0 10 0 10 7 4 2 8 4 7 3 3 7 10 2 4 3 2 7 8 2 7 9 1 8 8 1 2 0 10 3 8 3 4 4 10
split_gain=23.1821 14.7466 37.8666 20.9672 17.6143 7.76343 6.21635 5.93577 5.75721 4.40124 5.92356 3.82656 4.47857 3.99549 3.63728 4.94585 9.8 3.38181 4.0571 3.77155 5.11509 5.91683 3.3284 4.78136 2.84274 2.78883 2.85475 2.72687 2.71979 3.2707 2.52695 2.47569 4.32238 3.91498 3.36691 2.35888 2.18005 2.04774 2.04601 1.98335 2.0266 1.98127 1.94498 1.902 2.24424 2.43 1.83782 1.82249 1.81934 1.80974 1.90888 1.72405 1.68036 1.68011 1.66526 2.04345 1.64056 1.67087 1.61294 1.59598 1.74333 1.57186
threshold=0.96165202893708912 37.582368767779805 -0.25881904510252113 -0.37940952255126015 28.04712722612464 2.6687912972112273 14.915781104046363 2.2120559037437482 -0.44504625642270151 21.774006967959199 3.5000000000000004 17.831577860790752 295.32027316444811 46.10344911658246 299.582304285953 -0.96687281075841669 -0.18492532721306487 -0.96687281075841669 -0.94137724084408114 1.6567713998493401 -0.59869031648930193 -0.52032787705993211 0.98296291314453421 21.598733487336531 294.29840081465881 32.648827469867207 -0.78656609248549303 26.981198435244355 1.0000000180025095e-35 26.367984232695211 1.7267861456620071 1.5000000000000002 -0.99630266176052629 1.1672853857554184 1.0000000180025095e-35 1.2778326074700612 -0.58481178939031186 -0.92272482904738262 1.5027763125770972 22.927849728128184 0.10837544681456425 3.5000000000000004 0.029024409397335523 -0.99763297024448894 1.5778759605006172 2.9932740960695248 0.61237135649459018 1.1215949962013649 295.55769682231704 -0.12940952255126037 3.5663571470528264 2.1609280208800139 -0.37940952255126015 0.12545942051955489 -1.0000000180025095e-35 47.628402544104539 0.95691861501572195 1.5424577638249877 -0.89404254237865755 5.5000000000000009 2.5000000000000004 58.923720069553546
decision_type=2 2 2 2 2 2 2 2 2 2 2 2 2 2 2 2 2 2 2 2 2 2 2 2 2 2 2 2 2 2 2 2 2 2 2 2 2 2 2 2 2 2 2 2 2 2 2 2 2 2 2 2 2 2 2 2 2 2 2 2 2 2
left_child=8 2 3 27 7 25 14 9 11 10 -5 31 13 28 15 16 -4 -9 -19 -20 -21 -22 39 -24 -7 26 51 37 29 -13 -26 32 -1 34 -34 41 -10 48 59 40 52 -11 43 44 45 -17 -23 -25 -2 -3 54 -6 -8 58 55 -51 -38 61 -37 60 -28 -58
right_child=1 49 6 4 5 24 22 17 36 35 -12 12 -14 -15 -16 42 -18 18 19 20 21 46 23 47 30 -27 38 -29 -30 -31 -32 -33 33 -35 -36 53 56 -39 -40 -41 -42 -43 -44 -45 -46 -47 -48 -49 -50 50 -52 -53 -54 -55 -56 -57 57 -59 -60 -61 -62 -63
leaf_value=-0.055989993823692366 -0.10053915350102981 0.15670038523145069 -0.11752200532175522 -0.19504273991280829 -0.030142305927731684 -0.089083140890409196 -0.028014766912564677 -0.22005919586827788 0.0051986663238891102 -0.11163782334203852 -0.094016292285638625 -0.18206152671240555 0.091465825356878611 0.0050674937422639796 0.0016868651162497902 -0.086371533576129075 -0.044444598839309873 -0.079248187058775565 -0.1356564657485396 -0.068252950046660668 -0.18750045899524911 -0.12027480669397583 -0.158303295660537 -0.052331357227304247 -0.12424711612593209 -0.042021834072275693 -0.1445689657120216 0.015460865781689379 0.063768504864988265 -0.097104260006754498 -0.053245282362828744 -0.020290821466549227 -0.1716403437576263 -0.004978560826068304 -0.10041305951544832 -0.11616619961100219 0.22780470309181872 -0.018547562664032374 -0.060180095751665212 0.071460458071727337 0.033135003674185329 -0.16078020182166036 0.025897331473215542 -0.030472253047100065 -0.033172941805952885 -0.11526675370164896 -0.11785456205473294 -0.028946834424726314 -0.077894179831278276 -0.025762663473548938 -0.19346227577420758 -0.11106444582163828 0.0029803728436404342 -0.040876918247566028 0.11811605176571778 0.026059170223228179 -0.04973547706428974 0.17437850700401947 -0.064708830423157102 -0.15064105906048844 -0.07296786036580144 0.28298363734103527
leaf_weight=36 21 1923 28 32 186 23 1009 33 1820 25 20 36 3569 2587 538 20 70 30 53 49 28 30 22 20 24 693 51 594 113 353 38 756 37 205 45 36 13699 114 80 2431 927 45 156 809 55 30 21 285 20 1091 20 79 1421 62 1110 1917 1394 2029 88 27 81 680
leaf_count=36 21 1923 28 32 186 23 1009 33 1820 25 20 36 3569 2587 538 20 70 30 53 49 28 30 22 20 24 693 51 594 113 353 38 756 37 205 45 36 13699 114 80 2431 927 45 156 809 55 30 21 285 20 1091 20 79 1421 62 1110 1917 1394 2029 88 27 81 680
internal_value=0.000520491 -0.000961889 -0.002104 -0.00735288 -0.0102317 -0.00701638 -0.000370477 -0.0176993 0.00141261 -0.0130844 -0.0263462 0.000257529 0.000705167 -0.000688734 -0.00303927 -0.00460616 -0.0153571 -0.0235246 -0.0211967 -0.0240193 -0.019375 -0.0272468 0.00037408 -0.00453364 -0.0216176 -0.00597953 -0.00880952 -0.000303738 -0.00477092 -0.0067545 -0.0160484 -0.00250463 -0.00616873 -0.00412021 -0.0133537 -0.0103906 0.00186806 -0.00620968 -0.012772 0.000651348 -0.000136282 -0.0182143 -0.0036215 -0.00450219 -0.0108333 -0.0185 -0.0171078 -0.00290984 -0.0157927 0.000998598 0.000409618 -0.00523585 -0.000895062 -0.00744624 0.000484459 -0.00012633 0.00203657 0.00115952 -0.0108065 -0.0160535 -0.0137879 0.000161524
internal_weight=43824 16465 10404 2583 1834 1282 7821 552 27359 308 52 7737 6658 3089 1706 1168 98 244 211 181 128 79 6115 327 85 1197 504 749 502 389 62 1079 323 287 82 256 19622 155 239 5788 3357 70 1070 914 105 50 51 305 41 6061 4138 265 2430 186 4118 3008 17802 4103 124 159 132 2074
internal_count=43824 16465 10404 2583 1834 1282 7821 552 27359 308 52 7737 6658 3089 1706 1168 98 244 211 181 128 79 6115 327 85 1197 504 749 502 389 62 1079 323 287 82 256 19622 155 239 5788 3357 70 1070 914 105 50 51 305 41 6061 4138 265 2430 186 4118 3008 17802 4103 124 159 132 2074
is_linear=0
shrinkage=0.05


Tree=15
num_leaves=63
num_cat=0
split_feature=6 0 10 10 9 10 1 0 1 10 2 2 9 2 2 2 8 8 9 9 2 2 2 2 2 2 9 9 2 9 10 2 9 5 1 2 6 1 9 4 2 2 5 0 2 2 9 8 6 2 9 8 0 9 2 2 9 2 4 4 1 1
split_gain=22.5205 39.2207 12.7949 8.99955 8.82547 11.8399 8.71522 8.03101 8.33335 6.85787 5.95506 5.94856 5.33549 4.99263 6.21242 4.4911 4.77123 4.02252 4.01271 3.80259 5.94874 4.11019 4.26902 3.19962 8.2292 6.19796 8.36659 3.22194 3.17898 3.08111 3.05617 3.05412 2.90884 2.71536 3.63937 2.58335 2.55973 2.49601 2.33449 1.97342 1.90524 1.85278 1.76024 1.68751 1.85218 2.44903 2.02583 1.96749 2.32212 1.76701 1.65716 1.63733 1.89764 2.5405 6.51292 2.22285 1.60529 1.51485 1.43142 1.42823 1.37566 1.23919
threshold=1.3713968377364314 -0.25881904510252113 30.958468271338422 17.665115916210677 295.37548094096945 34.810870751090675 -0.37940952255126015 1.0000000180025095e-35 -0.12940952255126037 25.556308248768683 -0.99275805973510278 -0.99763297024448894 293.95542395340777 -0.59869031648930193 -0.53493989022977317 0.26037272046371446 1.5493505304624995 2.9256325026080732 294.47202924226468 295.05431664717838 0.69056404122701587 -0.36647417525074694 -0.13398594226331254 0.12545942051955489 -0.25205528343633254 -0.18492532721306487 299.582304285953 297.7128572644686 -0.38242426011641079 294.79987972861852 42.146040045696758 -0.01397611846945947 294.58892128392273 720.50897216796886 -0.5 0.67802080537253961 0.68217233758223694 -0.5 294.67755650570524 3.5000000000000004 -0.082689790342551819 0.039769539193789977 1073.937927246094 -1.0000000180025095e-35 -0.69057362043749781 -0.9905448150984083 294.18807273463204 1.8579368732581634 0.72104097065172723 -0.38242426011641079 294.69601085462074 1.3526373289099225 -0.25881904510252113 294.320714271947 -0.86976336936302323 0.22700754078277605 294.29840081465881 -0.17647087149565668 3.5000000000000004 4.5000000000000009 -0.37940952255126015 0.1294095225512602
decision_type=2 2 2 2 2 2 2 2 2 2 2 2 2 2 2 2 2 2 2 2 2 2 2 2 2 2 2 2 2 2 2 2 2 2 2 2 2 2 2 2 2 2 2 2 2 2 2 2 2 2 2 2 2 2 2 2 2 2 2 2 2 2
left_child=4 2 6 11 5 7 -2 8 -1 12 -8 33 -10 56 -15 16 -14 29 28 21 -21 -16 50 24 -13 26 39 35 -5 30 59 37 43 -3 -35 -25 40 42 -18 -26 61 -33 -27 44 45 -11 -46 48 -47 -48 -23 52 53 54 -38 -55 -12 -51 -24 -4 -31 -7
right_child=1 3 17 18 -6 36 10 -9 9 32 13 23 15 14 19 -17 38 -19 -20 20 -22 22 58 27 25 31 -28 -29 -30 60 -32 41 -34 34 -36 -37 51 -39 -40 -41 -42 -43 -44 -45 46 47 49 -49 -50 57 -52 -53 -54 55 -56 -57 -58 -59 -60 -61 -62 -63
leaf_value=0.0024465573152544873 -0.068783070130990678 0.10230607975779081 -0.04852307833946029 -0.056120600375515833 0.099917148394458061 0.12388935070727176 -0.12751695918790457 0.077649082636924799 -0.0063196015705278968 -0.0034936168728762901 -0.16393355755014916 -0.015471389970917538 -0.35844018982055686 -0.15774535228046782 -0.014687059732980718 -0.14819300251022846 -0.074163465270878789 -0.1468325589758665 0.02341206536453741 -0.038800676746281439 -0.14787017417247292 -0.15843179642555089 -0.005394458924221834 -0.019809573818075573 -0.12187365054605603 -0.018474336033238982 0.00069375396424205477 0.01462805237416248 -0.11663609417575274 0.036097130524532728 0.0094751926362861491 -0.084527592202537902 -0.04665533419026343 -0.11444221013258929 -0.065398270719657189 -0.11178117773005057 -0.19754077532696274 0.0075862307697738126 -0.17037875513094186 -0.12295000323401047 0.14908910096685818 -0.069033751682299277 -0.02368482903768325 -0.032408390960296324 -0.016320263796793761 -0.11419253280989235 -0.014858988419190847 -0.070403122349456101 -0.14460091952963236 -0.14479277040617 -0.12507607528030235 -0.00054038478347713601 0.10422569807822304 -0.054737854446414394 0.063116131655741842 -0.066087800863116011 -0.019567838171128615 -0.21837695800484905 -0.21240469123819572 -0.072185994312142329 -0.07108031896394873 -0.0024576516466282752
leaf_weight=517 145 33 73 87 18676 1690 26 611 43 26 21 1899 50 48 26 36 23 88 5442 79 32 29 20 106 22 21 23 1028 21 164 61 25 468 50 119 25 26 110 33 21 5405 70 22 84 66 33 26 21 56 24 39 1579 106 158 28 21 104 35 21 51 280 3552
leaf_count=517 145 33 73 87 18676 1690 26 611 43 26 21 1899 50 48 26 36 23 88 5442 79 32 29 20 106 22 21 23 1028 21 164 61 25 468 50 119 25 26 110 33 21 5405 70 22 84 66 33 26 21 56 24 39 1579 106 158 28 21 104 35 21 51 280 3552
internal_value=0.000539887 -0.00148811 -0.00958875 -0.000327707 0.00117337 0.000257695 -0.0150424 -0.00316914 -0.00509247 -0.00770508 -0.0185112 -0.00228456 -0.0164189 -0.0170704 -0.0206293 -0.0210915 -0.0262736 -0.00510112 0.000932432 -0.0174187 -0.0105631 -0.0230556 -0.0273165 -0.00178529 -0.00289991 -0.0103981 -0.0240152 0.000342968 -0.00861111 -0.00370032 -0.00912162 -0.00677419 -0.00578367 -0.0106188 -0.0131805 -0.00704198 0.000844608 -0.00240196 -0.01625 -0.0370349 0.00114751 -0.0138158 -0.0126163 -0.0090903 -0.0109146 -0.0151471 -0.00710265 -0.0184091 -0.0216573 -0.0122059 -0.035 -0.000836809 -0.00398968 -0.00651288 -0.0160185 -0.00364525 -0.0087 -0.0169915 -0.0145732 -0.013629 -0.00144144 0.000468333
internal_weight=43824 10431 1307 9124 33393 14717 590 2152 1541 1024 445 3574 185 419 294 142 106 717 5550 246 111 135 109 3372 2213 314 66 1159 108 629 185 248 839 202 169 131 12565 153 56 43 10647 95 43 371 287 136 151 110 89 85 68 1918 339 233 54 179 125 59 41 124 444 5242
internal_count=43824 10431 1307 9124 33393 14717 590 2152 1541 1024 445 3574 185 419 294 142 106 717 5550 246 111 135 109 3372 2213 314 66 1159 108 629 185 248 839 202 169 131 12565 153 56 43 10647 95 43 371 287 136 151 110 89 85 68 1918 339 233 54 179 125 59 41 124 444 5242
is_linear=0
shrinkage=0.05


Tree=16
num_leaves=63
num_cat=0
split_feature=6 9 5 8 0 3 3 0 0 9 4 9 9 5 3 3 1 8 5 3 1 0 9 3 9 3 1 7 6 3 3 3 9 5 5 9 5 0 1 3 3 3 3 3 9 6 7 7 1 6 3 3 7 3 3 7 9 9 9 3 3 4
split_gain=20.1365 27.3599 11.0714 5.06093 8.57952 4.46162 5.96387 4.13819 3.95361 3.6805 3.49765 3.1471 2.84735 2.91974 2.99121 5.14212 2.80673 2.99399 2.99755 2.58498 2.56318 3.05766 2.45705 2.35186 2.23798 3.12548 4.60093 2.99831 2.16803 2.6109 2.15402 3.75065 3.3332 3.03922 2.03594 1.98573 1.93401 1.89655 3.42861 2.61125 1.75793 1.70455 1.68864 3.35166 3.3487 3.11032 1.67282 1.6027 1.58633 2.10921 1.52096 2.08554 2.26449 1.39808 1.34442 3.23022 1.30645 1.3047 2.42004 1.45628 1.4 2.8875
threshold=0.70846933465254958 294.88762224699332 574.70190429687511 2.3070196375541232 -0.5 -0.99052477729077237 -0.88620506325989179 -0.5 -0.25881904510252113 295.83923325388065 4.5000000000000009 295.37548094096945 299.4374853355007 1073.937927246094 0.04621408538533487 -0.70289845916694649 0.37940952255126048 1.4061465092308325 488.41424560546881 -0.6391983530350368 -0.12940952255126037 -1.0000000180025095e-35 294.58892128392273 -0.96234030595689413 295.96004914936276 -0.85225707553516283 -0.37940952255126015 1.5646558099043999 1.8471704583419 -0.84313311835787952 -0.9575230291762723 -0.98212955754013376 298.44675098619979 1224.744079589844 200.34941864013675 293.43009339985105 735.62304687500011 1.0000000180025095e-35 0.1294095225512602 0.94909129669788206 0.98899263613956456 -0.80417042486635371 -0.71502926860092908 -0.6523320455745395 297.97965115195836 1.9497887219880761 1.8466824019582653 1.3320842381527551 -0.5 2.8023425774825257 -0.54219087765047058 0.04621408538533487 1.2621875261005606 -0.99273797715557011 -0.99273797715557011 0.89026704687821245 294.320714271947 294.36729415090468 294.29840081465881 0.97648852793709995 0.98005052076767474 4.5000000000000009
decision_type=2 2 2 2 2 2 2 2 2 2 2 2 2 2 2 2 2 2 2 2 2 2 2 2 2 2 2 2 2 2 2 2 2 2 2 2 2 2 2 2 2 2 2 2 2 2 2 2 2 2 2 2 2 2 2 2 2 2 2 2 2 2
left_child=11 2 8 9 19 -4 10 22 16 20 23 35 13 42 15 30 -2 34 53 24 -3 -22 28 -7 25 27 -27 -5 -8 -30 31 -15 -33 -34 -18 -1 -25 38 -37 -40 57 -28 -6 44 45 -44 -47 -20 49 -45 -51 52 -52 -19 55 -14 -36 58 59 -41 -61 -62
right_child=1 3 5 4 12 6 7 -9 -10 -11 -12 -13 54 14 -16 -17 17 18 47 -21 21 -23 -24 36 -26 26 41 -29 29 -31 -32 32 33 -35 56 37 -38 -39 39 40 -42 -43 43 48 -46 46 -48 -49 -50 50 51 -53 -54 -55 -56 -57 -58 -59 -60 60 61 -63
leaf_value=0.25334468203090815 -0.044040080700245038 0.038660681469923769 0.029631820705437534 -0.14037274776678751 0.0031158090863394904 -0.14545333441696381 -0.049074897194504148 -0.054990779572456676 -0.0091908595201022764 0.048286527176305542 -0.068949761195239975 0.13611335671250446 -0.077937106914551413 -0.0095926832813780366 0.046568430813568221 -0.05261309133335499 -0.078895033452532431 -0.15589668867054846 -0.16047159496827951 0.019932846555426199 -0.046283089339416959 0.039245408529024528 -0.065878845461610588 -0.11883456008928826 -0.0006190584500910299 -0.020796888922284013 -0.073075420402466007 -0.045530426614336594 -0.042713443689033216 -0.11876530513934869 -0.00038441272460297982 -0.11186149866693143 0.030120427287603304 -0.11855555234956738 -0.16657816690238011 0.12085190456706314 -0.11716700945474767 0.27977602346808333 -0.0032451717183209954 -0.041977721894079056 -0.04286387101538422 -0.12460396059930479 0.002864243082415314 -0.026993877009856521 -0.015506518189004012 -0.15691954675918482 -0.12857603566547027 -0.11938928076549449 0.0033435171623774872 0.02196921190280032 -0.067210065393235083 0.0014146943508428211 -0.04508427715593951 -0.054035946847085875 0.023736199726097765 -0.0023322730251444553 -0.10928499689104228 -0.1007483694969365 -0.34597139241603303 -0.36314205355779655 -0.036125268090722064 -0.25596340918175547
leaf_weight=2195 424 1002 52 28 2042 24 49 152 516 5963 48 13846 29 140 159 227 28 36 40 42 1205 533 55 24 46 28 22 106 24 61 352 29 31 20 31 3040 23 1511 4536 99 312 44 30 409 87 39 32 97 908 27 23 30 69 554 1795 221 31 182 26 20 48 22
leaf_count=2195 424 1002 52 28 2042 24 49 152 516 5963 48 13846 29 140 159 227 28 36 40 42 1205 533 55 24 46 28 22 106 24 61 352 29 31 20 31 3040 23 1511 4536 99 312 44 30 409 87 39 32 97 908 27 23 30 69 554 1795 221 31 182 26 20 48 22
internal_value=0.00054331 -0.00074123 -0.00587373 -3.18041e-07 -0.000999644 -0.0123437 -0.013913 -0.0105499 -0.00398833 0.000805182 -0.0235504 0.00143757 -0.000619869 -0.00130318 -0.00376305 -0.00500939 -0.00551773 -0.00723072 -0.00616575 -0.00905063 -0.000711679 -0.00187284 -0.0154894 -0.0305986 -0.0108212 -0.0128509 -0.0198404 -0.00794776 -0.0191418 -0.0239706 -0.00248252 -0.00636364 -0.015 -0.00730392 -0.0158333 0.000844592 -0.0240957 0.000540016 0.000242909 -0.000531458 -0.00335331 -0.0270455 -0.000665584 -0.00185308 -0.0081383 -0.0143317 -0.0200352 -0.0128285 -0.00104707 -0.00314516 -0.00823825 -0.0106148 -0.0143478 -0.00461864 0.000935208 -0.0025 -0.0208871 -0.00556045 -0.00819767 -0.00623016 -0.0108333 -0.0075
internal_weight=43824 17987 2269 15718 7015 512 460 341 1757 8703 119 25837 6699 4654 958 799 1241 817 727 316 2740 1738 189 71 274 228 94 134 134 85 572 220 80 51 90 11991 47 9796 8285 5245 709 66 3696 1654 188 101 71 137 1466 558 149 122 92 590 2045 250 62 397 215 189 90 70
internal_count=43824 17987 2269 15718 7015 512 460 341 1757 8703 119 25837 6699 4654 958 799 1241 817 727 316 2740 1738 189 71 274 228 94 134 134 85 572 220 80 51 90 11991 47 9796 8285 5245 709 66 3696 1654 188 101 71 137 1466 558 149 122 92 590 2045 250 62 397 215 189 90 70
is_linear=0
shrinkage=0.05


Tree=17
num_leaves=63
num_cat=0
split_feature=6 0 10 1 10 0 10 1 1 10 3 3 3 3 6 3 7 1 10 3 8 6 3 4 10 10 5 10 4 10 8 5 7 5 7 1 10 3 5 7 5 3 0 3 1 5 3 3 3 3 7 4 3 3 7 10 6 4 5 10 6 7
split_gain=17.5343 30.4709 13.3761 8.05364 7.51646 6.69811 12.3684 12.3219 8.5243 8.5747 4.48292 3.92362 4.15943 3.86797 3.81179 3.78414 3.83817 3.75192 3.48096 3.40221 3.2209 5.90068 3.31027 3.06515 2.93511 2.67857 2.50605 2.34576 2.87055 2.33437 2.15859 2.36989 2.34682 2.36321 2.14745 2.06602 2.31136 2.50198 3.0287 2.18949 2.05675 2.28738 1.97762 1.84573 1.82062 2.69944 1.80994 1.74434 1.73581 1.66543 1.66323 1.86921 2.28054 2.1691 1.66407 1.53041 2.27901 3.32677 2.25882 1.47242 1.42399 2.05616
threshold=1.3713968377364314 -0.25881904510252113 30.958468271338422 -0.37940952255126015 17.009741036788281 -0.25881904510252113 29.647969287374746 -0.37940952255126015 0.37940952255126048 50.287367198778234 -0.97111920233974802 -0.70289845916694649 0.04621408538533487 0.19969739736768838 1.59386040938528 -0.091258822863740666 1.4748269171463819 0.91597561503675351 21.965307691822883 -0.98212955754013376 1.3935989843589158 0.60625899465460542 0.98174098242282837 4.5000000000000009 25.744305237479832 14.036785975746488 764.72579956054699 21.965307691822883 3.5000000000000004 34.810870751090675 1.4840729232792238 228.8779220581055 -0.19734122226112763 141.62468719482425 1.1599688078227799 -0.60355339059327384 41.292719301970116 -0.98521978256641018 598.49520874023449 1.3928549103987846 520.80194091796886 -0.091258822863740666 0.91597561503675362 -0.99938741687870725 -0.5 1016.9682617187501 -0.96234030595689413 -0.95242240592625282 -0.84313311835787952 -0.92272482904738262 1.4664514160156255 1.5000000000000002 -0.6652727025667432 -0.84313311835787952 1.5901391501175732 14.212574150251305 -0.66175146404065577 1.0000000180025095e-35 541.95223999023449 22.927849728128184 0.4461946346885281 1.1049574922260488
decision_type=2 2 2 2 2 2 2 2 2 2 2 2 2 2 2 2 2 2 2 2 2 2 2 2 2 2 2 2 2 2 2 2 2 2 2 2 2 2 2 2 2 2 2 2 2 2 2 2 2 2 2 2 2 2 2 2 2 2 2 2 2 2
left_child=5 2 3 46 10 6 7 49 -8 29 19 -12 15 14 24 -13 26 59 -19 43 21 22 -9 25 -5 -21 -17 28 -22 -10 31 32 33 -31 -33 -4 37 -37 39 -39 -16 50 -28 -3 45 -45 -2 -40 -49 -1 -42 -52 53 54 -53 56 -7 58 -58 -6 -11 -62
